{"level_id":"5","surfaces_tile_map_ids":[""],"player_names":["cat","squirrel"],"surface_parser":{"floors":[{"d":54557,"v":["64.000000,-128.000000","128.000000,-128.000000"],"s":1,"t":"","i":[2],"crbb":"64.000000,-128.000000,64.000000,64.000000","cwv":54561,"ccwv":54563,"cwc":-1,"ccwc":-1},{"d":54558,"v":["-64.000000,64.000000","0.000000,64.000000"],"s":1,"t":"","i":[9],"crbb":"-64.000000,64.000000,64.000000,64.000000","cwv":54562,"ccwv":54564,"cwc":-1,"ccwc":-1}],"ceilings":[{"d":54559,"v":["128.000000,-64.000000","64.000000,-64.000000"],"s":2,"t":"","i":[2],"crbb":"64.000000,-128.000000,64.000000,64.000000","cwv":54563,"ccwv":54561,"cwc":-1,"ccwc":-1},{"d":54560,"v":["0.000000,128.000000","-64.000000,128.000000"],"s":2,"t":"","i":[9],"crbb":"-64.000000,64.000000,64.000000,64.000000","cwv":54564,"ccwv":54562,"cwc":-1,"ccwc":-1}],"left_walls":[{"d":54561,"v":["128.000000,-128.000000","128.000000,-64.000000"],"s":3,"t":"","i":[2],"crbb":"64.000000,-128.000000,64.000000,64.000000","cwv":54559,"ccwv":54557,"cwc":-1,"ccwc":-1},{"d":54562,"v":["0.000000,64.000000","0.000000,128.000000"],"s":3,"t":"","i":[9],"crbb":"-64.000000,64.000000,64.000000,64.000000","cwv":54560,"ccwv":54558,"cwc":-1,"ccwc":-1}],"right_walls":[{"d":54563,"v":["64.000000,-64.000000","64.000000,-128.000000"],"s":4,"t":"","i":[2],"crbb":"64.000000,-128.000000,64.000000,64.000000","cwv":54557,"ccwv":54559,"cwc":-1,"ccwc":-1},{"d":54564,"v":["-64.000000,128.000000","-64.000000,64.000000"],"s":4,"t":"","i":[9],"crbb":"-64.000000,64.000000,64.000000,64.000000","cwv":54558,"ccwv":54560,"cwc":-1,"ccwc":-1}]},"platform_graphs":[{"player_name":"cat","position_along_surface_id_to_json_object":{"54569":{"s":54557,"t":"5.000000,-128.000000","p":"64.000000,-128.000000"},"54570":{"s":54558,"t":"-64.000000,34.000000","p":"-64.000000,64.000000"},"54654":{"s":54557,"t":"187.000000,-128.000000","p":"128.000000,-128.000000"},"54656":{"s":54558,"t":"0.000000,34.000000","p":"0.000000,64.000000"},"54568":{"s":54557,"t":"64.000000,-158.000000","p":"64.000000,-128.000000"},"54587":{"s":54563,"t":"7.000000,-81.628563","p":"64.000000,-81.628563"},"54668":{"s":54563,"t":"7.000000,-110.000000","p":"64.000000,-110.000000"},"54602":{"s":54564,"t":"-121.000000,82.000000","p":"-64.000000,82.000000"},"54614":{"s":54561,"t":"185.000000,-110.000000","p":"128.000000,-110.000000"},"54692":{"s":54561,"t":"185.000000,-81.628563","p":"128.000000,-81.628563"},"54653":{"s":54557,"t":"128.000000,-158.000000","p":"128.000000,-128.000000"},"54624":{"s":54562,"t":"57.000000,64.000000","p":"0.000000,64.000000"},"54706":{"s":54562,"t":"57.000000,116.000000","p":"0.000000,116.000000"},"54963":{"s":54558,"t":"-123.000000,64.000000","p":"-64.000000,64.000000"},"54966":{"s":54564,"t":"-121.000000,110.371437","p":"-64.000000,110.371437"},"55002":{"s":54558,"t":"59.000000,64.000000","p":"0.000000,64.000000"},"54981":{"s":54562,"t":"57.000000,82.000000","p":"0.000000,82.000000"},"55017":{"s":54562,"t":"57.000000,110.371437","p":"0.000000,110.371437"},"55044":{"s":54557,"t":"87.055267,-158.000000","p":"87.055267,-128.000000"},"55117":{"s":54563,"t":"7.000000,-76.000000","p":"64.000000,-76.000000"},"55160":{"s":54561,"t":"185.000000,-76.000000","p":"128.000000,-76.000000"},"55205":{"s":54563,"t":"7.000000,-128.000000","p":"64.000000,-128.000000"},"55214":{"s":54563,"t":"7.000000,-64.000000","p":"64.000000,-64.000000"},"55438":{"s":54564,"t":"-121.000000,64.000000","p":"-64.000000,64.000000"},"55447":{"s":54564,"t":"-121.000000,128.000000","p":"-64.000000,128.000000"},"55544":{"s":54561,"t":"185.000000,-128.000000","p":"128.000000,-128.000000"},"55553":{"s":54561,"t":"185.000000,-64.000000","p":"128.000000,-64.000000"},"55845":{"s":54562,"t":"57.000000,128.000000","p":"0.000000,128.000000"},"55953":{"s":54562,"t":"57.000000,107.814140","p":"0.000000,107.814140"}},"jump_land_positions_id_to_json_object":{"54572":{"j":54569,"l":54570,"v":"-203.224014,0.000000","d":false,"s":false,"i":false},"54657":{"j":54654,"l":54656,"v":"203.224014,0.000000","d":false,"s":false,"i":false},"54588":{"j":54569,"l":54587,"v":"-203.224014,0.000000","d":false,"s":false,"i":false},"54669":{"j":54654,"l":54668,"v":"203.224014,0.000000","d":false,"s":false,"i":false},"54603":{"j":54569,"l":54602,"v":"-203.224014,0.000000","d":false,"s":false,"i":false},"54681":{"j":54654,"l":54602,"v":"203.224014,0.000000","d":false,"s":false,"i":false},"54615":{"j":54569,"l":54614,"v":"-203.224014,0.000000","d":false,"s":false,"i":false},"54693":{"j":54654,"l":54692,"v":"203.224014,0.000000","d":false,"s":false,"i":false},"54626":{"j":54569,"l":54624,"v":"-203.224014,0.000000","d":false,"s":false,"i":false},"54707":{"j":54654,"l":54706,"v":"203.224014,0.000000","d":false,"s":true,"i":false},"54730":{"j":54653,"l":54570,"v":"0.000000,-900.000000","d":false,"s":false,"i":false},"54731":{"j":54568,"l":54656,"v":"0.000000,-900.000000","d":false,"s":false,"i":false},"54732":{"j":54653,"l":54656,"v":"0.000000,-900.000000","d":false,"s":false,"i":true},"54810":{"j":54568,"l":54668,"v":"0.000000,-900.000000","d":true,"s":false,"i":false},"54824":{"j":54568,"l":54602,"v":"0.000000,-900.000000","d":true,"s":false,"i":false},"54825":{"j":54653,"l":54602,"v":"0.000000,-900.000000","d":false,"s":false,"i":true},"54846":{"j":54653,"l":54614,"v":"0.000000,-900.000000","d":true,"s":false,"i":false},"54859":{"j":54653,"l":54624,"v":"0.000000,-900.000000","d":false,"s":false,"i":false},"54860":{"j":54653,"l":54624,"v":"0.000000,-900.000000","d":false,"s":false,"i":true},"54967":{"j":54963,"l":54966,"v":"-203.224014,0.000000","d":false,"s":false,"i":false},"55006":{"j":55002,"l":54602,"v":"203.224014,0.000000","d":false,"s":false,"i":false},"54982":{"j":54963,"l":54981,"v":"-203.224014,0.000000","d":false,"s":false,"i":false},"55018":{"j":55002,"l":55017,"v":"203.224014,0.000000","d":false,"s":false,"i":false},"55045":{"j":54570,"l":55044,"v":"0.000000,-900.000000","d":true,"s":false,"i":false},"55046":{"j":54656,"l":54568,"v":"0.000000,-900.000000","d":false,"s":false,"i":false},"55047":{"j":54656,"l":54653,"v":"0.000000,-900.000000","d":true,"s":false,"i":true},"55119":{"j":54570,"l":55117,"v":"0.000000,-900.000000","d":false,"s":true,"i":false},"55148":{"j":54570,"l":54602,"v":"0.000000,-900.000000","d":true,"s":false,"i":false},"55162":{"j":54570,"l":54614,"v":"0.000000,-900.000000","d":true,"s":false,"i":true},"55163":{"j":54656,"l":54614,"v":"0.000000,-900.000000","d":true,"s":false,"i":true},"55164":{"j":54656,"l":55160,"v":"0.000000,-900.000000","d":false,"s":true,"i":true},"55192":{"j":54656,"l":54981,"v":"0.000000,-900.000000","d":true,"s":false,"i":false},"55207":{"j":55205,"l":54568,"v":"0.000000,0.000000","d":false,"s":false,"i":false},"55217":{"j":55205,"l":54570,"v":"-20.000000,0.000000","d":false,"s":false,"i":false},"55282":{"j":55214,"l":54570,"v":"-20.000000,0.000000","d":false,"s":false,"i":false},"55238":{"j":55205,"l":54602,"v":"-20.000000,0.000000","d":false,"s":false,"i":false},"55294":{"j":55214,"l":54602,"v":"-20.000000,0.000000","d":false,"s":false,"i":false},"55250":{"j":55205,"l":54614,"v":"-20.000000,0.000000","d":false,"s":false,"i":false},"55306":{"j":55214,"l":54614,"v":"-20.000000,0.000000","d":false,"s":false,"i":false},"55261":{"j":55205,"l":54624,"v":"-20.000000,0.000000","d":false,"s":false,"i":false},"55314":{"j":55214,"l":54624,"v":"-20.000000,0.000000","d":false,"s":false,"i":false},"55337":{"j":55205,"l":54568,"v":"-400.000000,-900.000000","d":false,"s":false,"i":false},"55363":{"j":55214,"l":54570,"v":"-400.000000,-900.000000","d":false,"s":false,"i":false},"55396":{"j":55205,"l":54614,"v":"-400.000000,-900.000000","d":true,"s":false,"i":false},"55411":{"j":55214,"l":54624,"v":"-400.000000,-900.000000","d":false,"s":false,"i":false},"55409":{"j":55214,"l":54624,"v":"-400.000000,-900.000000","d":false,"s":false,"i":false},"55410":{"j":55214,"l":54624,"v":"-400.000000,-900.000000","d":false,"s":false,"i":false},"55440":{"j":55438,"l":54570,"v":"0.000000,0.000000","d":false,"s":false,"i":false},"55451":{"j":55438,"l":54981,"v":"-20.000000,0.000000","d":false,"s":false,"i":false},"55463":{"j":55447,"l":54981,"v":"-20.000000,0.000000","d":false,"s":false,"i":false},"55473":{"j":55438,"l":54568,"v":"-400.000000,-900.000000","d":false,"s":false,"i":false},"55483":{"j":55438,"l":54570,"v":"-400.000000,-900.000000","d":false,"s":false,"i":false},"55515":{"j":55438,"l":54614,"v":"-400.000000,-900.000000","d":true,"s":false,"i":false},"55516":{"j":55438,"l":55160,"v":"-400.000000,-900.000000","d":false,"s":true,"i":false},"55531":{"j":55438,"l":54981,"v":"-400.000000,-900.000000","d":true,"s":false,"i":false},"55546":{"j":55544,"l":54653,"v":"0.000000,0.000000","d":false,"s":false,"i":false},"55556":{"j":55544,"l":54656,"v":"20.000000,0.000000","d":false,"s":false,"i":false},"55602":{"j":55553,"l":54656,"v":"20.000000,0.000000","d":false,"s":false,"i":false},"55568":{"j":55544,"l":54668,"v":"20.000000,0.000000","d":false,"s":false,"i":false},"55614":{"j":55553,"l":54668,"v":"20.000000,0.000000","d":false,"s":false,"i":false},"55580":{"j":55544,"l":54602,"v":"20.000000,0.000000","d":false,"s":false,"i":false},"55623":{"j":55553,"l":54602,"v":"20.000000,0.000000","d":false,"s":false,"i":false},"55591":{"j":55544,"l":54706,"v":"20.000000,0.000000","d":false,"s":true,"i":false},"55634":{"j":55553,"l":54706,"v":"20.000000,0.000000","d":false,"s":true,"i":false},"55647":{"j":55544,"l":54653,"v":"400.000000,-900.000000","d":false,"s":false,"i":false},"55673":{"j":55553,"l":54656,"v":"400.000000,-900.000000","d":false,"s":false,"i":false},"55674":{"j":55544,"l":54656,"v":"400.000000,-900.000000","d":false,"s":false,"i":false},"55716":{"j":55544,"l":54668,"v":"400.000000,-900.000000","d":true,"s":false,"i":false},"55730":{"j":55544,"l":54602,"v":"400.000000,-900.000000","d":true,"s":false,"i":false},"55732":{"j":55553,"l":54602,"v":"400.000000,-900.000000","d":false,"s":false,"i":false},"55753":{"j":55544,"l":54981,"v":"400.000000,-900.000000","d":false,"s":false,"i":false},"55755":{"j":55553,"l":54981,"v":"400.000000,-900.000000","d":false,"s":false,"i":false},"55838":{"j":54624,"l":54656,"v":"0.000000,0.000000","d":false,"s":false,"i":false},"55849":{"j":54624,"l":54602,"v":"20.000000,0.000000","d":false,"s":false,"i":false},"55861":{"j":55845,"l":54602,"v":"20.000000,0.000000","d":false,"s":false,"i":false},"55871":{"j":54624,"l":54568,"v":"400.000000,-900.000000","d":false,"s":false,"i":false},"55881":{"j":54624,"l":54656,"v":"400.000000,-900.000000","d":false,"s":false,"i":false},"55909":{"j":54624,"l":55117,"v":"400.000000,-900.000000","d":false,"s":false,"i":false},"55907":{"j":54624,"l":55117,"v":"400.000000,-900.000000","d":false,"s":true,"i":false},"55908":{"j":54624,"l":55117,"v":"400.000000,-900.000000","d":false,"s":false,"i":false},"55937":{"j":54624,"l":54602,"v":"400.000000,-900.000000","d":true,"s":false,"i":false},"55952":{"j":54981,"l":54614,"v":"400.000000,-900.000000","d":true,"s":false,"i":false},"55954":{"j":55953,"l":55160,"v":"400.000000,-900.000000","d":false,"s":true,"i":false}},"surface_id_to_inter_surface_edges_results":{"54557":[{"o":54557,"d":54558,"t":4,"p":[54572,54657],"f":[{"p":54657,"w":11,"t":4,"r":3,"s":54654,"e":54656,"v":"203.224014,0.000000","d":false,"h":false,"c":"FallFromFloorCalculator"}],"v":[{"fl":true,"fp":54569,"t":4,"r":0,"s":54568,"e":54570,"v":"0.000000,0.000000","d":false,"h":false,"c":"FallFromFloorCalculator","tb":false,"st":2,"ea":true,"ia":true,"pn":"cat","io":false,"in":{"i":[{"k":"ml","t":0,"i":true},{"k":"ml","t":0.583243,"i":false},{"k":"ml","t":0.734016,"i":true},{"k":"ml","t":0.879568,"i":false}],"d":0.837902},"tr":{"f":172.939438,"d":["64.000000,-158.000000","64.000000,-157.750000","63.902779,-157.500000","63.708336,-157.250000","63.416668,-157.000000","63.027779,-156.750000","62.541668,-156.500000","61.958336,-156.250000","61.277779,-156.000000","60.500000,-155.750000","59.625000,-155.500000","58.652779,-155.250000","57.583336,-155.000000","56.416668,-154.750000","55.152779,-154.500000","53.791668,-154.250000","52.333336,-154.000000","50.777779,-153.750000","49.125000,-153.500000","47.375000,-153.250000","45.527779,-153.000000","43.583332,-152.750000","41.541664,-152.500000","39.402775,-152.250000","37.166664,-152.000000","34.833332,-151.750000","32.402775,-151.500000","29.874996,-151.250000","27.249996,-151.000000","24.527775,-150.750000","21.708330,-150.500000","18.791664,-150.250000","15.777776,-150.000000","12.666665,-149.750000","9.458332,-149.500000","5.000000,-128.000000","1.612933,-128.000000","-2.663023,-126.611115","-7.827868,-123.833336","-13.881603,-119.666672","-20.824226,-114.111115","-21.968477,-113.557114"],"p":["64.000000,-158.000000","64.000000,-157.750000","63.902779,-157.500000","63.708336,-157.250000","63.416668,-157.000000","63.027779,-156.750000","62.541668,-156.500000","61.958336,-156.250000","61.277779,-156.000000","60.500000,-155.750000","59.625000,-155.500000","58.652779,-155.250000","57.583336,-155.000000","56.416668,-154.750000","55.152779,-154.500000","53.791668,-154.250000","52.333336,-154.000000","50.777779,-153.750000","49.125000,-153.500000","47.375000,-153.250000","45.527779,-153.000000","43.583332,-152.750000","41.541664,-152.500000","39.402775,-152.250000","37.166664,-152.000000","34.833332,-151.750000","32.402775,-151.500000","29.874996,-151.250000","27.249996,-151.000000","24.527775,-150.750000","21.708330,-150.500000","18.791664,-150.250000","15.777776,-150.000000","12.666665,-149.750000","9.458332,-149.500000","5.000000,-128.000000","1.612933,-127.305557","-1.774134,-125.222221","-5.161201,-121.750000","-8.548267,-116.888885","-11.935334,-110.638885","-15.322401,-103.000000","-18.709469,-93.972221","-22.096535,-83.555557","-25.483603,-71.750000","-29.279963,-58.555557","-33.964489,-43.972221","-39.537903,-28.000000","-46.000206,-10.638889","-53.351398,8.111111","-61.591476,28.250000"],"v":["0.000000,15.000000","-5.833333,15.000000","-11.666667,15.000000","-17.500000,15.000000","-23.333334,15.000000","-29.166668,15.000000","-35.000000,15.000000","-40.833332,15.000000","-46.666664,15.000000","-52.499996,15.000000","-58.333328,15.000000","-64.166664,15.000000","-70.000000,15.000000","-75.833336,15.000000","-81.666672,15.000000","-87.500008,15.000000","-93.333344,15.000000","-99.166679,15.000000","-105.000015,15.000000","-110.833351,15.000000","-116.666687,15.000000","-122.500023,15.000000","-128.333359,15.000000","-134.166687,15.000000","-140.000015,15.000000","-145.833344,15.000000","-151.666672,15.000000","-157.500000,15.000000","-163.333328,15.000000","-169.166656,15.000000","-174.999985,15.000000","-180.833313,15.000000","-186.666641,15.000000","-192.499969,15.000000","-198.333298,15.000000","-203.224014,0.000000","-203.224014,83.333336","-203.224014,166.666672","-203.224014,250.000000","-203.224014,333.333344","-203.224014,416.666656","-203.224014,500.000000","-203.224014,583.333313","-203.224014,666.666687","-203.224014,750.000000","-254.404861,833.333313","-307.738190,916.666687","-361.071533,1000.000000","-414.404877,1083.333374","-467.738190,1166.666626","-521.071533,1250.000000"],"w":["-64.000000,34.000000"],"h":[{"k":"ml","t":0.150673,"i":true,"p":"-29.451811,-57.993881"}]},"ve":"-535.658569,1272.792236","di":172.939438,"du":0.837902}]},{"o":54557,"d":54563,"t":4,"p":[54588,54669],"f":[{"p":54669,"w":11,"t":4,"r":3,"s":54654,"e":54668,"v":"203.224014,0.000000","d":false,"h":false,"c":"FallFromFloorCalculator"}],"v":[{"fl":true,"fp":54569,"t":4,"r":0,"s":54568,"e":54587,"v":"0.000000,0.000000","d":false,"h":false,"c":"FallFromFloorCalculator","tb":false,"st":2,"ea":true,"ia":true,"pn":"cat","io":false,"in":{"i":[{"k":"ml","t":0,"i":true},{"k":"ml","t":0.583243,"i":false},{"k":"mr","t":0.583343,"i":true},{"k":"mr","t":0.761203,"i":false},{"k":"gw","t":0.80287,"i":true},{"k":"fr","t":0.80287,"i":true}],"d":0.719536},"tr":{"f":37.884288,"d":["64.000000,-158.000000","64.000000,-157.750000","63.902779,-157.500000","63.708336,-157.250000","63.416668,-157.000000","63.027779,-156.750000","62.541668,-156.500000","61.958336,-156.250000","61.277779,-156.000000","60.500000,-155.750000","59.625000,-155.500000","58.652779,-155.250000","57.583336,-155.000000","56.416668,-154.750000","55.152779,-154.500000","53.791668,-154.250000","52.333336,-154.000000","50.777779,-153.750000","49.125000,-153.500000","47.375000,-153.250000","45.527779,-153.000000","43.583332,-152.750000","41.541664,-152.500000","39.402775,-152.250000","37.166664,-152.000000","34.833332,-151.750000","32.402775,-151.500000","29.874996,-151.250000","27.249996,-151.000000","24.527775,-150.750000","21.708330,-150.500000","18.791664,-150.250000","15.777776,-150.000000","12.666665,-149.750000","9.458332,-149.500000","5.000000,-128.000000","1.612933,-128.000000","-0.885245,-126.611115","-2.494534,-123.833336","-3.214935,-119.666672","-3.046446,-114.111115","-1.989069,-107.166672","-0.042802,-98.833336","-0.292685,-98.315681"],"p":["64.000000,-158.000000","64.000000,-157.750000","63.902779,-157.500000","63.708336,-157.250000","63.416668,-157.000000","63.027779,-156.750000","62.541668,-156.500000","61.958336,-156.250000","61.277779,-156.000000","60.500000,-155.750000","59.625000,-155.500000","58.652779,-155.250000","57.583336,-155.000000","56.416668,-154.750000","55.152779,-154.500000","53.791668,-154.250000","52.333336,-154.000000","50.777779,-153.750000","49.125000,-153.500000","47.375000,-153.250000","45.527779,-153.000000","43.583332,-152.750000","41.541664,-152.500000","39.402775,-152.250000","37.166664,-152.000000","34.833332,-151.750000","32.402775,-151.500000","29.874996,-151.250000","27.249996,-151.000000","24.527775,-150.750000","21.708330,-150.500000","18.791664,-150.250000","15.777776,-150.000000","12.666665,-149.750000","9.458332,-149.500000","5.000000,-128.000000","2.057377,-127.305557","0.003644,-125.222221","-1.161201,-121.750000","-1.437157,-116.888885","-0.824224,-110.638885","0.677598,-103.000000","3.068309,-93.972221"],"v":["0.000000,15.000000","-5.833333,15.000000","-11.666667,15.000000","-17.500000,15.000000","-23.333334,15.000000","-29.166668,15.000000","-35.000000,15.000000","-40.833332,15.000000","-46.666664,15.000000","-52.499996,15.000000","-58.333328,15.000000","-64.166664,15.000000","-70.000000,15.000000","-75.833336,15.000000","-81.666672,15.000000","-87.500008,15.000000","-93.333344,15.000000","-99.166679,15.000000","-105.000015,15.000000","-110.833351,15.000000","-116.666687,15.000000","-122.500023,15.000000","-128.333359,15.000000","-134.166687,15.000000","-140.000015,15.000000","-145.833344,15.000000","-151.666672,15.000000","-157.500000,15.000000","-163.333328,15.000000","-169.166656,15.000000","-174.999985,15.000000","-180.833313,15.000000","-186.666641,15.000000","-192.499969,15.000000","-198.333298,15.000000","-203.224014,0.000000","-149.890686,83.333336","-96.557350,166.666672","-43.224018,250.000000","10.109315,333.333344","63.442650,416.666656","116.775978,500.000000","170.109314,583.333313"],"w":["7.000000,-81.628563"],"h":[{"k":"mr","t":0,"i":true,"p":"2.057377,-127.305557"}]},"ve":"232.594070,680.965759","di":37.884288,"du":0.719536}]},{"o":54557,"d":54564,"t":4,"p":[54603,54681],"f":[{"p":54603,"w":11,"t":4,"r":3,"s":54569,"e":54602,"v":"-203.224014,0.000000","d":false,"h":false,"c":"FallFromFloorCalculator"},{"p":54681,"w":11,"t":4,"r":3,"s":54654,"e":54602,"v":"203.224014,0.000000","d":false,"h":false,"c":"FallFromFloorCalculator"}],"v":[]},{"o":54557,"d":54561,"t":4,"p":[54615,54693],"f":[{"p":54615,"w":11,"t":4,"r":3,"s":54569,"e":54614,"v":"-203.224014,0.000000","d":false,"h":false,"c":"FallFromFloorCalculator"}],"v":[{"fl":false,"fp":54654,"t":4,"r":0,"s":54653,"e":54692,"v":"0.000000,0.000000","d":false,"h":false,"c":"FallFromFloorCalculator","tb":false,"st":2,"ea":true,"ia":true,"pn":"cat","io":false,"in":{"i":[{"k":"mr","t":0,"i":true},{"k":"mr","t":0.583243,"i":false},{"k":"ml","t":0.583343,"i":true},{"k":"ml","t":0.761203,"i":false},{"k":"gw","t":0.80287,"i":true},{"k":"fl","t":0.80287,"i":true}],"d":0.719536},"tr":{"f":37.884285,"d":["128.000000,-158.000000","128.000000,-157.750000","128.097229,-157.500000","128.291672,-157.250000","128.583344,-157.000000","128.972229,-156.750000","129.458344,-156.500000","130.041672,-156.250000","130.722229,-156.000000","131.500000,-155.750000","132.375000,-155.500000","133.347229,-155.250000","134.416672,-155.000000","135.583344,-154.750000","136.847229,-154.500000","138.208344,-154.250000","139.666672,-154.000000","141.222229,-153.750000","142.875000,-153.500000","144.625000,-153.250000","146.472229,-153.000000","148.416672,-152.750000","150.458344,-152.500000","152.597229,-152.250000","154.833344,-152.000000","157.166672,-151.750000","159.597229,-151.500000","162.125000,-151.250000","164.750000,-151.000000","167.472229,-150.750000","170.291672,-150.500000","173.208344,-150.250000","176.222229,-150.000000","179.333344,-149.750000","182.541672,-149.500000","187.000000,-128.000000","190.387070,-128.000000","192.885254,-126.611115","194.494537,-123.833336","195.214935,-119.666672","195.046448,-114.111115","193.989075,-107.166672","192.042801,-98.833336","192.292679,-98.315681"],"p":["128.000000,-158.000000","128.000000,-157.750000","128.097229,-157.500000","128.291672,-157.250000","128.583344,-157.000000","128.972229,-156.750000","129.458344,-156.500000","130.041672,-156.250000","130.722229,-156.000000","131.500000,-155.750000","132.375000,-155.500000","133.347229,-155.250000","134.416672,-155.000000","135.583344,-154.750000","136.847229,-154.500000","138.208344,-154.250000","139.666672,-154.000000","141.222229,-153.750000","142.875000,-153.500000","144.625000,-153.250000","146.472229,-153.000000","148.416672,-152.750000","150.458344,-152.500000","152.597229,-152.250000","154.833344,-152.000000","157.166672,-151.750000","159.597229,-151.500000","162.125000,-151.250000","164.750000,-151.000000","167.472229,-150.750000","170.291672,-150.500000","173.208344,-150.250000","176.222229,-150.000000","179.333344,-149.750000","182.541672,-149.500000","187.000000,-128.000000","189.942627,-127.305557","191.996353,-125.222221","193.161194,-121.750000","193.437149,-116.888885","192.824219,-110.638885","191.322403,-103.000000","188.931686,-93.972221"],"v":["0.000000,15.000000","5.833333,15.000000","11.666667,15.000000","17.500000,15.000000","23.333334,15.000000","29.166668,15.000000","35.000000,15.000000","40.833332,15.000000","46.666664,15.000000","52.499996,15.000000","58.333328,15.000000","64.166664,15.000000","70.000000,15.000000","75.833336,15.000000","81.666672,15.000000","87.500008,15.000000","93.333344,15.000000","99.166679,15.000000","105.000015,15.000000","110.833351,15.000000","116.666687,15.000000","122.500023,15.000000","128.333359,15.000000","134.166687,15.000000","140.000015,15.000000","145.833344,15.000000","151.666672,15.000000","157.500000,15.000000","163.333328,15.000000","169.166656,15.000000","174.999985,15.000000","180.833313,15.000000","186.666641,15.000000","192.499969,15.000000","198.333298,15.000000","203.224014,0.000000","149.890686,83.333336","96.557350,166.666672","43.224018,250.000000","-10.109315,333.333344","-63.442650,416.666656","-116.775978,500.000000","-170.109314,583.333313"],"w":["185.000000,-81.628563"],"h":[{"k":"ml","t":0,"i":true,"p":"189.942627,-127.305557"}]},"ve":"-232.594070,680.965759","di":37.884285,"du":0.719536}]},{"o":54557,"d":54562,"t":4,"p":[54626,54707],"f":[{"p":54626,"w":11,"t":4,"r":3,"s":54569,"e":54624,"v":"-203.224014,0.000000","d":false,"h":false,"c":"FallFromFloorCalculator"},{"p":54707,"w":11,"t":4,"r":3,"s":54654,"e":54706,"v":"203.224014,0.000000","d":false,"h":true,"c":"FallFromFloorCalculator"}],"v":[]},{"o":54557,"d":54558,"t":8,"p":[54730,54731,54732],"f":[{"p":54732,"w":11,"t":8,"r":8,"s":54653,"e":54656,"v":"0.000000,-900.000000","d":false,"h":false,"c":"JumpInterSurfaceCalculator"}],"v":[{"t":8,"r":1,"s":54653,"e":54570,"v":"0.000000,-900.000000","d":false,"h":false,"c":"JumpInterSurfaceCalculator","tb":true,"st":2,"ea":true,"ia":true,"pn":"cat","io":false,"in":{"i":[{"k":"j","t":0,"i":true},{"k":"j","t":0.008333,"i":false},{"k":"ml","t":0.050606,"i":true},{"k":"ml","t":0.279773,"i":false},{"k":"mr","t":0.354356,"i":true},{"k":"mr","t":0.467979,"i":false}],"d":0.510454},"tr":{"f":422.970511,"d":["128.000000,-158.000000","128.000000,-173.000000","128.000000,-186.611115","128.000000,-198.833344","128.000000,-209.666672","127.111115,-219.111115","125.333336,-227.166672","122.666672,-233.833344","119.111115,-239.111130","114.666672,-243.000015","109.333336,-245.500015","103.111115,-246.611130","96.000000,-246.333359","88.000000,-244.666687","79.111107,-241.611130","69.333328,-237.166687","59.333328,-231.333359","49.333328,-224.111130","39.333328,-215.500015","29.333328,-205.500015","19.333328,-194.111130","9.333327,-181.333359","-0.666674,-167.166687","-9.777785,-151.611130","-18.000008,-134.666687","-25.333342,-116.333359","-31.777786,-96.611137","-37.333344,-75.500031","-42.000011,-53.000031","-45.777790,-29.111139","-48.147419,-13.773253"],"p":["128.000000,-158.000000","128.000000,-172.305557","128.000000,-185.222229","128.000000,-196.750000","127.587288,-206.888885","126.286270,-215.638885","124.096367,-223.000000","121.017570,-228.972229","117.049889,-233.555557","112.193321,-236.750000","106.447861,-238.555557","99.813507,-238.972229","92.290276,-238.000000","83.878143,-235.638885","74.577133,-231.888885","64.613571,-226.750000","54.613575,-220.222229","44.613575,-212.305557","34.613575,-203.000000","24.613575,-192.305557","14.613575,-180.222229","4.613575,-166.750000","2.000000,-163.000000","-7.555555,-147.775894","-16.222221,-131.162903","-24.000000,-113.161011","-30.888889,-93.770233","-37.095978,-72.990570","-43.258293,-50.822021","-49.420605,-27.264580","-55.582920,-2.318250","-61.745232,24.016968"],"v":["0.000000,-900.000000","0.000000,-816.666687","0.000000,-733.333313","0.000000,-650.000000","-51.394268,-566.666687","-104.727600,-483.333344","-158.060928,-400.000000","-211.394272,-316.666656","-264.727600,-233.333328","-318.060944,-150.000000","-371.394257,-66.666664","-424.727600,16.666666","-478.060944,100.000000","-531.394287,183.333328","-584.727600,266.666656","-600.000000,350.000000","-600.000000,433.333344","-600.000000,516.666687","-600.000000,600.000000","-600.000000,683.333313","-600.000000,766.666687","-600.000000,850.000000","-600.000000,871.779785","-546.666687,955.113098","-493.333344,1038.446411","-440.000000,1121.779785","-386.666656,1205.113159","-369.738831,1288.446411","-369.738831,1371.779785","-369.738831,1455.113159","-369.738831,1538.446411","-369.738831,1621.779785"],"w":["2.000000,-163.000000","-64.000000,34.000000"],"h":[{"k":"ml","t":0.050606,"i":true,"p":"127.587288,-206.888885"},{"k":"ml","t":0.279773,"i":false,"p":"44.613575,-212.305557"},{"k":"mr","t":0.354356,"i":true,"p":"-5.143939,-151.888885"},{"k":"mr","t":0.467979,"i":false,"p":"-53.972351,-8.972222"}],"j":{"k":"j","t":0.008333,"i":false,"p":"128.000000,-172.305557"}},"ve":"-369.738831,1652.271118","di":422.970511,"du":0.510454},{"t":8,"r":1,"s":54568,"e":54656,"v":"0.000000,-900.000000","d":false,"h":false,"c":"JumpInterSurfaceCalculator","tb":true,"st":2,"ea":true,"ia":true,"pn":"cat","io":false,"in":{"i":[{"k":"j","t":0,"i":true},{"k":"j","t":0.008333,"i":false},{"k":"ml","t":0.077194,"i":true},{"k":"ml","t":0.200911,"i":false},{"k":"mr","t":0.354359,"i":true},{"k":"mr","t":0.552121,"i":false}],"d":0.510454},"tr":{"f":380.21668,"d":["64.000000,-158.000000","64.000000,-173.000000","64.000000,-186.611115","64.000000,-198.833344","64.000000,-209.666672","64.000000,-219.111115","63.111111,-227.166672","61.333332,-233.833344","58.666664,-239.111130","55.111107,-243.000015","50.666664,-245.500015","45.333332,-246.611130","39.111111,-246.333359","32.000000,-244.666687","24.888889,-241.611130","17.777779,-237.166687","10.666667,-231.333359","3.555555,-224.111130","-3.555556,-215.500015","-10.666668,-205.500015","-17.777779,-194.111130","-24.888889,-181.333359","-32.000000,-167.166687","-38.222221,-151.611130","-43.555553,-134.666687","-48.000000,-116.333359","-51.555557,-96.611137","-54.222225,-75.500031","-56.000004,-53.000031","-56.888893,-29.111139","-57.220222,-13.773253"],"p":["64.000000,-158.000000","64.000000,-172.305557","64.000000,-185.222229","64.000000,-196.750000","64.000000,-206.888885","63.939697,-215.638885","63.167835,-223.000000","61.507080,-228.972229","58.957439,-233.555557","55.518909,-236.750000","51.279640,-238.555557","46.903645,-238.972229","42.527649,-238.000000","38.151653,-235.638885","33.775658,-231.888885","29.399664,-226.750000","25.023670,-220.222229","20.647675,-212.305557","16.271679,-203.000000","11.895685,-192.305557","7.519690,-180.222229","3.143695,-166.750000","2.000000,-163.000000","-1.931717,-147.775894","-4.974545,-131.162903","-7.128485,-113.161011","-8.393535,-93.770233","-8.769696,-72.990570","-8.256969,-50.822021","-6.855353,-27.264580","-4.564848,-2.318250","-1.385454,24.016968","-0.000000,34.000000"],"v":["0.000000,-900.000000","0.000000,-816.666687","0.000000,-733.333313","0.000000,-650.000000","0.000000,-566.666687","-19.645166,-483.333344","-72.978500,-400.000000","-126.311836,-316.666656","-179.645172,-233.333328","-232.978500,-150.000000","-262.559692,-66.666664","-262.559692,16.666666","-262.559692,100.000000","-262.559692,183.333328","-262.559692,266.666656","-262.559692,350.000000","-262.559692,433.333344","-262.559692,516.666687","-262.559692,600.000000","-262.559692,683.333313","-262.559692,766.666687","-262.559692,850.000000","-262.559692,871.779785","-209.236359,955.113098","-155.903030,1038.446411","-102.569695,1121.779785","-49.236359,1205.113159","4.096974,1288.446411","57.430309,1371.779785","110.763641,1455.113159","164.096970,1538.446411","217.430313,1621.779785","236.944794,1652.271118"],"w":["2.000000,-163.000000","0.000000,34.000000"],"h":[{"k":"ml","t":0.077194,"i":true,"p":"63.939697,-215.638885"},{"k":"ml","t":0.200911,"i":false,"p":"38.151653,-235.638885"},{"k":"mr","t":0.354359,"i":true,"p":"-0.989933,-151.888885"}],"j":{"k":"j","t":0.008333,"i":false,"p":"64.000000,-172.305557"}},"ve":"236.944794,1652.271118","di":380.21668,"du":0.510454}]},{"o":54557,"d":54563,"t":8,"p":[54810],"f":[{"p":54810,"w":11,"t":8,"r":3,"s":54568,"e":54668,"v":"0.000000,-900.000000","d":true,"h":false,"c":"JumpInterSurfaceCalculator"}],"v":[]},{"o":54557,"d":54564,"t":8,"p":[54824,54825],"f":[{"p":54824,"w":11,"t":8,"r":3,"s":54568,"e":54602,"v":"0.000000,-900.000000","d":true,"h":false,"c":"JumpInterSurfaceCalculator"},{"p":54825,"w":11,"t":8,"r":3,"s":54653,"e":54602,"v":"0.000000,-900.000000","d":false,"h":false,"c":"JumpInterSurfaceCalculator"}],"v":[]},{"o":54557,"d":54561,"t":8,"p":[54846],"f":[{"p":54846,"w":11,"t":8,"r":3,"s":54653,"e":54614,"v":"0.000000,-900.000000","d":true,"h":false,"c":"JumpInterSurfaceCalculator"}],"v":[]},{"o":54557,"d":54562,"t":8,"p":[54859,54860],"f":[{"p":54859,"w":11,"t":8,"r":3,"s":54653,"e":54624,"v":"0.000000,-900.000000","d":false,"h":false,"c":"JumpInterSurfaceCalculator"},{"p":54860,"w":11,"t":8,"r":3,"s":54653,"e":54624,"v":"0.000000,-900.000000","d":false,"h":false,"c":"JumpInterSurfaceCalculator"}],"v":[]}],"54558":[{"o":54558,"d":54564,"t":4,"p":[54967,55006],"f":[{"p":55006,"w":11,"t":4,"r":3,"s":55002,"e":54602,"v":"203.224014,0.000000","d":false,"h":false,"c":"FallFromFloorCalculator"}],"v":[{"fl":true,"fp":54963,"t":4,"r":0,"s":54570,"e":54966,"v":"0.000000,0.000000","d":false,"h":false,"c":"FallFromFloorCalculator","tb":false,"st":2,"ea":true,"ia":true,"pn":"cat","io":false,"in":{"i":[{"k":"ml","t":0,"i":true},{"k":"ml","t":0.583243,"i":false},{"k":"mr","t":0.583343,"i":true},{"k":"mr","t":0.761203,"i":false},{"k":"gw","t":0.80287,"i":true},{"k":"fr","t":0.80287,"i":true}],"d":0.719536},"tr":{"f":37.884281,"d":["-64.000000,34.000000","-64.000000,34.250000","-64.097221,34.500000","-64.291664,34.750000","-64.583328,35.000000","-64.972214,35.250000","-65.458328,35.500000","-66.041664,35.750000","-66.722221,36.000000","-67.500000,36.250000","-68.375000,36.500000","-69.347221,36.750000","-70.416664,37.000000","-71.583328,37.250000","-72.847214,37.500000","-74.208328,37.750000","-75.666664,38.000000","-77.222221,38.250000","-78.875000,38.500000","-80.625000,38.750000","-82.472221,39.000000","-84.416664,39.250000","-86.458328,39.500000","-88.597214,39.750000","-90.833328,40.000000","-93.166664,40.250000","-95.597221,40.500000","-98.125000,40.750000","-100.750000,41.000000","-103.472221,41.250000","-106.291664,41.500000","-109.208328,41.750000","-112.222214,42.000000","-115.333328,42.250000","-118.541664,42.500000","-123.000000,64.000000","-126.387070,64.000000","-128.885254,65.388885","-130.494537,68.166664","-131.214935,72.333328","-131.046448,77.888885","-129.989075,84.833328","-128.042801,93.166664","-128.292679,93.684319"],"p":["-64.000000,34.000000","-64.000000,34.250000","-64.097221,34.500000","-64.291664,34.750000","-64.583328,35.000000","-64.972214,35.250000","-65.458328,35.500000","-66.041664,35.750000","-66.722221,36.000000","-67.500000,36.250000","-68.375000,36.500000","-69.347221,36.750000","-70.416664,37.000000","-71.583328,37.250000","-72.847214,37.500000","-74.208328,37.750000","-75.666664,38.000000","-77.222221,38.250000","-78.875000,38.500000","-80.625000,38.750000","-82.472221,39.000000","-84.416664,39.250000","-86.458328,39.500000","-88.597214,39.750000","-90.833328,40.000000","-93.166664,40.250000","-95.597221,40.500000","-98.125000,40.750000","-100.750000,41.000000","-103.472221,41.250000","-106.291664,41.500000","-109.208328,41.750000","-112.222214,42.000000","-115.333328,42.250000","-118.541664,42.500000","-123.000000,64.000000","-125.942619,64.694443","-127.996353,66.777779","-129.161194,70.250000","-129.437149,75.111115","-128.824219,81.361115","-127.322403,89.000000","-124.931694,98.027779"],"v":["0.000000,15.000000","-5.833333,15.000000","-11.666667,15.000000","-17.500000,15.000000","-23.333334,15.000000","-29.166668,15.000000","-35.000000,15.000000","-40.833332,15.000000","-46.666664,15.000000","-52.499996,15.000000","-58.333328,15.000000","-64.166664,15.000000","-70.000000,15.000000","-75.833336,15.000000","-81.666672,15.000000","-87.500008,15.000000","-93.333344,15.000000","-99.166679,15.000000","-105.000015,15.000000","-110.833351,15.000000","-116.666687,15.000000","-122.500023,15.000000","-128.333359,15.000000","-134.166687,15.000000","-140.000015,15.000000","-145.833344,15.000000","-151.666672,15.000000","-157.500000,15.000000","-163.333328,15.000000","-169.166656,15.000000","-174.999985,15.000000","-180.833313,15.000000","-186.666641,15.000000","-192.499969,15.000000","-198.333298,15.000000","-203.224014,0.000000","-149.890686,83.333336","-96.557350,166.666672","-43.224018,250.000000","10.109315,333.333344","63.442650,416.666656","116.775978,500.000000","170.109314,583.333313"],"w":["-121.000000,110.371437"],"h":[{"k":"mr","t":0,"i":true,"p":"-125.942619,64.694443"}]},"ve":"232.594070,680.965759","di":37.884281,"du":0.719536}]},{"o":54558,"d":54562,"t":4,"p":[54982,55018],"f":[{"p":54982,"w":11,"t":4,"r":3,"s":54963,"e":54981,"v":"-203.224014,0.000000","d":false,"h":false,"c":"FallFromFloorCalculator"}],"v":[{"fl":false,"fp":55002,"t":4,"r":0,"s":54656,"e":55017,"v":"0.000000,0.000000","d":false,"h":false,"c":"FallFromFloorCalculator","tb":false,"st":2,"ea":true,"ia":true,"pn":"cat","io":false,"in":{"i":[{"k":"mr","t":0,"i":true},{"k":"mr","t":0.583243,"i":false},{"k":"ml","t":0.583343,"i":true},{"k":"ml","t":0.761203,"i":false},{"k":"gw","t":0.80287,"i":true},{"k":"fl","t":0.80287,"i":true}],"d":0.719536},"tr":{"f":37.884289,"d":["0.000000,34.000000","0.000000,34.250000","0.097222,34.500000","0.291667,34.750000","0.583333,35.000000","0.972222,35.250000","1.458333,35.500000","2.041667,35.750000","2.722223,36.000000","3.500000,36.250000","4.375000,36.500000","5.347223,36.750000","6.416667,37.000000","7.583334,37.250000","8.847223,37.500000","10.208335,37.750000","11.666668,38.000000","13.222223,38.250000","14.875001,38.500000","16.625002,38.750000","18.472225,39.000000","20.416670,39.250000","22.458338,39.500000","24.597227,39.750000","26.833340,40.000000","29.166674,40.250000","31.597229,40.500000","34.125008,40.750000","36.750008,41.000000","39.472229,41.250000","42.291672,41.500000","45.208340,41.750000","48.222229,42.000000","51.333340,42.250000","54.541672,42.500000","59.000000,64.000000","62.387066,64.000000","64.885246,65.388885","66.494537,68.166664","67.214935,72.333328","67.046448,77.888885","65.989067,84.833328","64.042801,93.166664","64.292686,93.684319"],"p":["0.000000,34.000000","0.000000,34.250000","0.097222,34.500000","0.291667,34.750000","0.583333,35.000000","0.972222,35.250000","1.458333,35.500000","2.041667,35.750000","2.722223,36.000000","3.500000,36.250000","4.375000,36.500000","5.347223,36.750000","6.416667,37.000000","7.583334,37.250000","8.847223,37.500000","10.208335,37.750000","11.666668,38.000000","13.222223,38.250000","14.875001,38.500000","16.625002,38.750000","18.472225,39.000000","20.416670,39.250000","22.458338,39.500000","24.597227,39.750000","26.833340,40.000000","29.166674,40.250000","31.597229,40.500000","34.125008,40.750000","36.750008,41.000000","39.472229,41.250000","42.291672,41.500000","45.208340,41.750000","48.222229,42.000000","51.333340,42.250000","54.541672,42.500000","59.000000,64.000000","61.942623,64.694443","63.996357,66.777779","65.161201,70.250000","65.437157,75.111115","64.824226,81.361115","63.322403,89.000000","60.931690,98.027779"],"v":["0.000000,15.000000","5.833333,15.000000","11.666667,15.000000","17.500000,15.000000","23.333334,15.000000","29.166668,15.000000","35.000000,15.000000","40.833332,15.000000","46.666664,15.000000","52.499996,15.000000","58.333328,15.000000","64.166664,15.000000","70.000000,15.000000","75.833336,15.000000","81.666672,15.000000","87.500008,15.000000","93.333344,15.000000","99.166679,15.000000","105.000015,15.000000","110.833351,15.000000","116.666687,15.000000","122.500023,15.000000","128.333359,15.000000","134.166687,15.000000","140.000015,15.000000","145.833344,15.000000","151.666672,15.000000","157.500000,15.000000","163.333328,15.000000","169.166656,15.000000","174.999985,15.000000","180.833313,15.000000","186.666641,15.000000","192.499969,15.000000","198.333298,15.000000","203.224014,0.000000","149.890686,83.333336","96.557350,166.666672","43.224018,250.000000","-10.109315,333.333344","-63.442650,416.666656","-116.775978,500.000000","-170.109314,583.333313"],"w":["57.000000,110.371437"],"h":[{"k":"ml","t":0,"i":true,"p":"61.942623,64.694443"}]},"ve":"-232.594070,680.965759","di":37.884289,"du":0.719536}]},{"o":54558,"d":54557,"t":8,"p":[55045,55046,55047],"f":[{"p":55046,"w":11,"t":8,"r":8,"s":54656,"e":54568,"v":"0.000000,-900.000000","d":false,"h":false,"c":"JumpInterSurfaceCalculator"},{"p":55047,"w":11,"t":8,"r":3,"s":54656,"e":54653,"v":"0.000000,-900.000000","d":true,"h":false,"c":"JumpInterSurfaceCalculator"}],"v":[{"t":8,"r":2,"s":54570,"e":55044,"v":"0.000000,-900.000000","d":true,"h":false,"c":"JumpInterSurfaceCalculator","tb":true,"st":2,"ea":true,"ia":true,"pn":"cat","io":false,"in":{"i":[{"k":"j","t":0,"i":true},{"k":"mr","t":0.190682,"i":true},{"k":"mr","t":0.419849,"i":false},{"k":"j","t":0.438432,"i":false}],"d":0.536191},"tr":{"f":330.320097,"d":["-64.000000,34.000000","-64.000000,19.000000","-64.000000,4.527778","-64.000000,-9.416667","-64.000000,-22.833332","-64.000000,-35.722221","-64.000000,-48.083332","-64.000000,-59.916664","-64.000000,-71.222214","-64.000000,-81.999992","-64.000000,-92.249992","-64.000000,-101.972214","-64.000000,-111.166656","-63.111111,-119.833321","-61.333332,-127.972206","-58.666664,-135.583313","-55.111107,-142.666641","-50.666664,-149.222198","-45.333332,-155.249969","-39.111111,-160.749969","-32.000000,-165.722183","-24.000000,-170.166626","-15.111110,-174.083282","-5.333331,-177.472168","4.666670,-180.333282","14.666671,-182.666611","24.666672,-184.472168","34.666672,-185.749939","44.666672,-185.638824","54.666672,-184.138824","64.666672,-181.249939","74.666672,-176.972153","76.381210,-177.151337"],"p":["-64.000000,34.000000","-64.000000,19.263889","-64.000000,5.055555","-64.000000,-8.625000","-64.000000,-21.777779","-64.000000,-34.402779","-64.000000,-46.500000","-64.000000,-58.069443","-64.000000,-69.111115","-64.000000,-79.625000","-64.000000,-89.611115","-64.000000,-99.069443","-63.861084,-108.000000","-62.919685,-116.402779","-61.089397,-124.277779","-58.370224,-131.625000","-54.762157,-138.444443","-50.265205,-144.736115","-44.879360,-150.500000","-38.604630,-155.736115","-31.441010,-160.444443","-23.388500,-164.625000","-14.447102,-168.277771","-4.659271,-171.402771","5.340729,-174.000000","15.340729,-176.069443","25.340729,-177.594894","35.340729,-178.011093","45.340729,-177.038406","55.340729,-174.676834","65.340729,-170.926361","75.340729,-165.787018","85.340729,-159.258774"],"v":["0.000000,-900.000000","0.000000,-868.333313","0.000000,-836.666687","0.000000,-805.000000","0.000000,-773.333313","0.000000,-741.666687","0.000000,-710.000000","0.000000,-678.333313","0.000000,-646.666687","0.000000,-615.000000","0.000000,-583.333313","0.000000,-551.666687","29.817221,-520.000000","83.150558,-488.333344","136.483887,-456.666656","189.817215,-425.000000","243.150558,-393.333344","296.483887,-361.666656","349.817230,-330.000000","403.150543,-298.333344","456.483887,-266.666656","509.817230,-235.000000","563.150574,-203.333328","600.000000,-171.666672","600.000000,-140.000000","600.000000,-108.333336","600.000000,-66.638794","600.000000,16.694538","600.000000,100.027870","600.000000,183.361206","600.000000,266.694550","600.000000,350.027863","600.000000,433.361206"],"w":["87.055267,-158.000000"],"h":[{"k":"mr","t":0.190682,"i":true,"p":"-63.861084,-108.000000"},{"k":"mr","t":0.419849,"i":false,"p":"25.340729,-177.594894"}],"j":{"k":"j","t":0.438432,"i":false,"p":"35.340729,-178.011093"}},"ve":"600.000000,447.649017","di":330.320097,"du":0.536191}]},{"o":54558,"d":54563,"t":8,"p":[55119],"f":[],"v":[{"t":8,"r":0,"s":54570,"e":55117,"v":"0.000000,-900.000000","d":false,"h":true,"c":"JumpInterSurfaceCalculator","tb":true,"st":2,"ea":true,"ia":true,"pn":"cat","io":false,"in":{"i":[{"k":"j","t":0,"i":true},{"k":"mr","t":0.002132,"i":true},{"k":"j","t":0.063519,"i":false},{"k":"mr","t":0.231299,"i":false},{"k":"gw","t":0.272965,"i":true},{"k":"fr","t":0.272965,"i":true}],"d":0.214215},"tr":{"f":139.063837,"d":["-64.000000,34.000000","-64.000000,19.000000","-63.111111,4.527778","-61.333332,-9.416667","-58.666664,-22.833332","-55.111107,-34.861111","-50.666664,-45.500000","-45.333332,-54.750000","-39.111111,-62.611111","-32.000000,-69.083336","-24.000000,-74.166672","-15.111110,-77.861115","-6.804133,-80.031845"],"p":["-64.000000,34.000000","-63.661991,19.263889","-62.442364,5.055555","-60.333847,-8.625000","-57.336441,-21.573479","-53.450150,-33.174759","-48.674965,-43.387146","-43.010895,-52.210644","-36.457935,-59.645256","-29.016087,-65.690979","-20.685349,-70.347809","-11.465721,-73.615753","-1.529198,-75.494812"],"v":["0.000000,-900.000000","46.510944,-868.333313","99.844276,-836.666687","153.177612,-805.000000","206.510941,-737.743347","259.844269,-654.409973","313.177612,-571.076660","366.510956,-487.743317","419.844269,-404.409973","473.177612,-321.076660","526.510925,-237.743317","579.844299,-154.409988","600.000000,-71.076653"],"w":["7.000000,-76.000000"],"h":[{"k":"mr","t":0.002132,"i":true,"p":"-63.661991,19.263889"}],"j":{"k":"j","t":0.063519,"i":false,"p":"-57.336441,-21.573479"}},"ve":"600.000000,0.000000","di":139.063837,"du":0.214215}]},{"o":54558,"d":54564,"t":8,"p":[55148],"f":[{"p":55148,"w":11,"t":8,"r":3,"s":54570,"e":54602,"v":"0.000000,-900.000000","d":true,"h":false,"c":"JumpInterSurfaceCalculator"}],"v":[]},{"o":54558,"d":54561,"t":8,"p":[55162,55163,55164],"f":[{"p":55162,"w":11,"t":8,"r":3,"s":54570,"e":54614,"v":"0.000000,-900.000000","d":true,"h":false,"c":"JumpInterSurfaceCalculator"},{"p":55163,"w":11,"t":8,"r":3,"s":54656,"e":54614,"v":"0.000000,-900.000000","d":true,"h":false,"c":"JumpInterSurfaceCalculator"},{"p":55164,"w":11,"t":8,"r":3,"s":54656,"e":55160,"v":"0.000000,-900.000000","d":false,"h":true,"c":"JumpInterSurfaceCalculator"}],"v":[]},{"o":54558,"d":54562,"t":8,"p":[55192],"f":[{"p":55192,"w":11,"t":8,"r":3,"s":54656,"e":54981,"v":"0.000000,-900.000000","d":true,"h":false,"c":"JumpInterSurfaceCalculator"}],"v":[]}],"54563":[{"o":54563,"d":54557,"t":3,"p":[55207],"f":[],"v":[{"t":3,"r":0,"s":55205,"e":54568,"v":"0.000000,0.000000","d":false,"h":false,"c":"ClimbOverWallToFloorCalculator","tb":false,"st":1,"ea":true,"ia":false,"pn":"cat","io":false,"in":{"i":[{"k":"mr","t":0,"i":true},{"k":"mu","t":0,"i":true}],"d":-1},"ve":"0.000000,0.000000","di":87,"du":-0.248571}]},{"o":54563,"d":54558,"t":5,"p":[55217,55282],"f":[{"p":55282,"w":11,"t":5,"r":3,"s":55214,"e":54570,"v":"-20.000000,0.000000","d":false,"h":false,"c":"FallFromWallCalculator"}],"v":[{"t":5,"r":0,"s":55205,"e":54570,"v":"-20.000000,0.000000","d":false,"h":false,"c":"FallFromWallCalculator","tb":false,"st":2,"ea":true,"ia":true,"pn":"cat","io":false,"in":{"i":[{"k":"ml","t":0,"i":true},{"k":"ml","t":0.001,"i":false},{"k":"ml","t":0.050298,"i":true},{"k":"ml","t":0.273214,"i":false}],"d":0.254558},"tr":{"f":171.166988,"d":["7.000000,-128.000000","6.666667,-128.000000","6.333333,-126.611115","6.000000,-123.833336","5.666666,-119.666672","4.444444,-114.111115","2.333332,-107.166672","-0.666668,-98.833336","-4.555557,-89.111115","-9.333335,-78.000000","-15.000002,-65.500000","-21.555557,-51.611111","-29.000002,-36.333332","-37.333336,-19.666666","-46.555557,-1.611111","-49.290623,2.698052"],"p":["7.000000,-128.000000","6.666667,-127.305557","6.333333,-125.222221","6.000000,-121.750000","5.237949,-116.888885","3.587150,-110.638885","1.047462,-103.000000","-2.381114,-93.972221","-6.698579,-83.555557","-11.904933,-71.750000","-18.000177,-58.555557","-24.984308,-43.972221","-32.857330,-28.000000","-41.619240,-10.638889","-51.264935,8.111111","-61.264935,28.250000"],"v":["-20.000000,0.000000","-20.000000,83.333336","-20.000000,166.666672","-20.000000,250.000000","-72.381248,333.333344","-125.714584,416.666656","-179.047913,500.000000","-232.381256,583.333313","-285.714600,666.666687","-339.047913,750.000000","-392.381256,833.333313","-445.714600,916.666687","-499.047913,1000.000000","-552.381226,1083.333374","-600.000000,1166.666626","-600.000000,1250.000000"],"w":["-64.000000,34.000000"],"h":[{"k":"ml","t":0,"i":true,"p":"6.666667,-127.305557"},{"k":"ml","t":0.001,"i":false,"p":"6.666667,-127.305557"},{"k":"ml","t":0.050298,"i":true,"p":"5.237949,-116.888885"}]},"ve":"-600.000000,1272.792236","di":171.166988,"du":0.254558},{"t":5,"r":0,"s":55205,"e":54570,"v":"-20.000000,0.000000","d":false,"h":false,"c":"FallFromWallCalculator","tb":false,"st":2,"ea":true,"ia":true,"pn":"cat","io":false,"in":{"i":[{"k":"ml","t":0,"i":true},{"k":"ml","t":0.001,"i":false},{"k":"ml","t":0.050298,"i":true},{"k":"ml","t":0.273214,"i":false}],"d":0.254558},"tr":{"f":171.166988,"d":["7.000000,-128.000000","6.666667,-128.000000","6.333333,-126.611115","6.000000,-123.833336","5.666666,-119.666672","4.444444,-114.111115","2.333332,-107.166672","-0.666668,-98.833336","-4.555557,-89.111115","-9.333335,-78.000000","-15.000002,-65.500000","-21.555557,-51.611111","-29.000002,-36.333332","-37.333336,-19.666666","-46.555557,-1.611111","-49.290623,2.698052"],"p":["7.000000,-128.000000","6.666667,-127.305557","6.333333,-125.222221","6.000000,-121.750000","5.237949,-116.888885","3.587150,-110.638885","1.047462,-103.000000","-2.381114,-93.972221","-6.698579,-83.555557","-11.904933,-71.750000","-18.000177,-58.555557","-24.984308,-43.972221","-32.857330,-28.000000","-41.619240,-10.638889","-51.264935,8.111111","-61.264935,28.250000"],"v":["-20.000000,0.000000","-20.000000,83.333336","-20.000000,166.666672","-20.000000,250.000000","-72.381248,333.333344","-125.714584,416.666656","-179.047913,500.000000","-232.381256,583.333313","-285.714600,666.666687","-339.047913,750.000000","-392.381256,833.333313","-445.714600,916.666687","-499.047913,1000.000000","-552.381226,1083.333374","-600.000000,1166.666626","-600.000000,1250.000000"],"w":["-64.000000,34.000000"],"h":[{"k":"ml","t":0,"i":true,"p":"6.666667,-127.305557"},{"k":"ml","t":0.001,"i":false,"p":"6.666667,-127.305557"},{"k":"ml","t":0.050298,"i":true,"p":"5.237949,-116.888885"}]},"ve":"-600.000000,1272.792236","di":171.166988,"du":0.254558}]},{"o":54563,"d":54564,"t":5,"p":[55238,55294],"f":[{"p":55238,"w":11,"t":5,"r":3,"s":55205,"e":54602,"v":"-20.000000,0.000000","d":false,"h":false,"c":"FallFromWallCalculator"},{"p":55294,"w":11,"t":5,"r":3,"s":55214,"e":54602,"v":"-20.000000,0.000000","d":false,"h":false,"c":"FallFromWallCalculator"}],"v":[]},{"o":54563,"d":54561,"t":5,"p":[55250,55306],"f":[{"p":55250,"w":11,"t":5,"r":3,"s":55205,"e":54614,"v":"-20.000000,0.000000","d":false,"h":false,"c":"FallFromWallCalculator"},{"p":55306,"w":3,"t":5,"r":4,"s":55214,"e":54614,"v":"-20.000000,0.000000","d":false,"h":false,"c":"FallFromWallCalculator"}],"v":[]},{"o":54563,"d":54562,"t":5,"p":[55261,55314],"f":[{"p":55261,"w":11,"t":5,"r":3,"s":55205,"e":54624,"v":"-20.000000,0.000000","d":false,"h":false,"c":"FallFromWallCalculator"},{"p":55314,"w":11,"t":5,"r":3,"s":55214,"e":54624,"v":"-20.000000,0.000000","d":false,"h":false,"c":"FallFromWallCalculator"}],"v":[]},{"o":54563,"d":54557,"t":8,"p":[55337],"f":[],"v":[{"t":8,"r":0,"s":55205,"e":54568,"v":"-400.000000,-900.000000","d":false,"h":false,"c":"JumpInterSurfaceCalculator","tb":true,"st":2,"ea":true,"ia":true,"pn":"cat","io":false,"in":{"i":[{"k":"j","t":0,"i":true},{"k":"mr","t":0,"i":true},{"k":"j","t":0.032701,"i":false},{"k":"mr","t":0.354167,"i":false}],"d":0.355417},"tr":{"f":196.756564,"d":["7.000000,-128.000000","0.333333,-143.000000","-5.444445,-157.472229","-10.333334,-170.555557","-14.333334,-182.250000","-17.444445,-192.555557","-19.666668,-201.472229","-21.000002,-209.000015","-21.444447,-215.138901","-21.000002,-219.888901","-19.666668,-223.250015","-17.444445,-225.222244","-14.333333,-225.805573","-10.333333,-225.000015","-5.444444,-222.805573","0.333335,-219.222244","7.000002,-214.250015","14.555559,-207.888901","23.000004,-200.138901","32.333340,-191.000015","42.333340,-180.472244","45.583340,-177.536819"],"p":["7.000000,-128.000000","0.777778,-142.736115","-4.555555,-156.819839","-9.000000,-169.606613","-12.555555,-181.004486","-15.222222,-191.013474","-17.000000,-199.633560","-17.888889,-206.864777","-17.888889,-212.707092","-17.000000,-217.160522","-15.222222,-220.225067","-12.555555,-221.900711","-9.000000,-222.187485","-4.555555,-221.085358","0.777778,-218.594345","7.000000,-214.714432","14.111111,-209.445648","22.111111,-202.787964","31.000000,-194.741394","40.750000,-185.305939","50.750000,-174.481583","60.750000,-162.268341"],"v":["-400.000000,-900.000000","-346.666656,-868.333313","-293.333344,-808.872437","-240.000000,-725.539124","-186.666672,-642.205811","-133.333328,-558.872437","-80.000000,-475.539124","-26.666666,-392.205811","26.666666,-308.872467","80.000000,-225.539124","133.333328,-142.205795","186.666672,-58.872463","240.000000,24.460871","293.333344,107.794205","346.666656,191.127533","400.000000,274.460876","453.333344,357.794189","506.666656,441.127533","560.000000,524.460876","600.000000,607.794189","600.000000,691.127563","600.000000,774.460876"],"w":["64.000000,-158.000000"],"h":[{"k":"mr","t":0,"i":true,"p":"0.777778,-142.736115"}],"j":{"k":"j","t":0.032701,"i":false,"p":"-4.555555,-156.819839"}},"ve":"600.000000,801.544189","di":196.756564,"du":0.355417}]},{"o":54563,"d":54558,"t":8,"p":[55363],"f":[],"v":[{"t":8,"r":0,"s":55214,"e":54570,"v":"-400.000000,-900.000000","d":false,"h":false,"c":"JumpInterSurfaceCalculator","tb":true,"st":2,"ea":true,"ia":true,"pn":"cat","io":false,"in":{"i":[{"k":"j","t":0,"i":true},{"k":"j","t":0.008333,"i":false},{"k":"mr","t":0.187735,"i":true},{"k":"mr","t":0.489248,"i":false}],"d":0.447582},"tr":{"f":291.447659,"d":["7.000000,-64.000000","0.333333,-79.000000","-6.333334,-92.611115","-13.000001,-104.833336","-19.666668,-115.666672","-26.333336,-125.111115","-33.000004,-133.166672","-39.666672,-139.833344","-46.333340,-145.111130","-53.000008,-149.000015","-59.666676,-151.500015","-66.333344,-152.611130","-73.000008,-152.333359","-78.777786,-150.666687","-83.666672,-147.611130","-87.666672,-143.166687","-90.777786,-137.333359","-93.000008,-130.111130","-94.333344,-121.500015","-94.777786,-111.500015","-94.333344,-100.111130","-93.000008,-87.333351","-90.777786,-73.166687","-87.666672,-57.611134","-83.666672,-40.666691","-78.777786,-22.333359","-73.967300,-5.674237"],"p":["7.000000,-64.000000","0.333333,-78.305557","-6.333333,-91.222221","-13.000000,-102.750000","-19.666666,-112.888885","-26.333334,-121.638885","-33.000000,-129.000000","-39.666668,-134.972229","-46.333332,-139.555557","-53.000000,-142.750000","-59.666668,-144.555557","-66.333336,-144.972229","-72.759308,-144.000000","-78.327385,-141.638885","-83.006577,-137.888885","-86.796875,-132.750000","-89.698288,-126.222221","-91.710808,-118.305557","-92.834442,-109.000000","-93.069191,-98.305557","-92.415047,-86.222221","-90.872017,-72.750000","-88.440094,-57.888889","-85.119286,-41.638889","-80.909584,-24.000000","-75.810997,-4.972222","-69.823517,15.444445"],"v":["-400.000000,-900.000000","-400.000000,-816.666687","-400.000000,-733.333313","-400.000000,-650.000000","-400.000000,-566.666687","-400.000000,-483.333344","-400.000000,-400.000000","-400.000000,-316.666656","-400.000000,-233.333328","-400.000000,-150.000000","-400.000000,-66.666664","-400.000000,16.666666","-360.751373,100.000000","-307.418060,183.333328","-254.084717,266.666656","-200.751389,350.000000","-147.418045,433.333344","-94.084717,516.666687","-40.751381,600.000000","12.581952,683.333313","65.915283,766.666687","119.248619,850.000000","172.581955,933.333313","225.915283,1016.666687","279.248627,1100.000000","332.581940,1183.333374","385.915283,1266.666626"],"w":["-64.000000,34.000000"],"h":[{"k":"mr","t":0.187735,"i":true,"p":"-72.759308,-144.000000"}],"j":{"k":"j","t":0.008333,"i":false,"p":"0.333333,-78.305557"}},"ve":"431.510254,1337.908813","di":291.447659,"du":0.447582}]},{"o":54563,"d":54564,"t":8,"p":[],"f":[],"v":[]},{"o":54563,"d":54561,"t":8,"p":[55396],"f":[{"p":55396,"w":11,"t":8,"r":3,"s":55205,"e":54614,"v":"-400.000000,-900.000000","d":true,"h":false,"c":"JumpInterSurfaceCalculator"}],"v":[]},{"o":54563,"d":54562,"t":8,"p":[55411,55409,55410],"f":[{"p":55411,"w":11,"t":8,"r":3,"s":55214,"e":54624,"v":"-400.000000,-900.000000","d":false,"h":false,"c":"JumpInterSurfaceCalculator"},{"p":55409,"w":11,"t":8,"r":3,"s":55214,"e":54624,"v":"-400.000000,-900.000000","d":false,"h":false,"c":"JumpInterSurfaceCalculator"},{"p":55410,"w":11,"t":8,"r":3,"s":55214,"e":54624,"v":"-400.000000,-900.000000","d":false,"h":false,"c":"JumpInterSurfaceCalculator"}],"v":[]}],"54564":[{"o":54564,"d":54558,"t":3,"p":[55440],"f":[],"v":[{"t":3,"r":0,"s":55438,"e":54570,"v":"0.000000,0.000000","d":false,"h":false,"c":"ClimbOverWallToFloorCalculator","tb":false,"st":1,"ea":true,"ia":false,"pn":"cat","io":false,"in":{"i":[{"k":"mr","t":0,"i":true},{"k":"mu","t":0,"i":true}],"d":-1},"ve":"0.000000,0.000000","di":87,"du":-0.248571}]},{"o":54564,"d":54562,"t":5,"p":[55451,55463],"f":[{"p":55451,"w":11,"t":5,"r":3,"s":55438,"e":54981,"v":"-20.000000,0.000000","d":false,"h":false,"c":"FallFromWallCalculator"},{"p":55463,"w":3,"t":5,"r":4,"s":55447,"e":54981,"v":"-20.000000,0.000000","d":false,"h":false,"c":"FallFromWallCalculator"}],"v":[]},{"o":54564,"d":54557,"t":8,"p":[55473],"f":[{"p":55473,"w":2,"t":8,"r":4,"s":55438,"e":54568,"v":"-400.000000,-900.000000","d":false,"h":false,"c":"JumpInterSurfaceCalculator"}],"v":[]},{"o":54564,"d":54558,"t":8,"p":[55483],"f":[],"v":[{"t":8,"r":0,"s":55438,"e":54570,"v":"-400.000000,-900.000000","d":false,"h":false,"c":"JumpInterSurfaceCalculator","tb":true,"st":2,"ea":true,"ia":true,"pn":"cat","io":false,"in":{"i":[{"k":"j","t":0,"i":true},{"k":"mr","t":0,"i":true},{"k":"j","t":0.032701,"i":false},{"k":"mr","t":0.354167,"i":false}],"d":0.355417},"tr":{"f":196.756556,"d":["-121.000000,64.000000","-127.666664,49.000000","-133.444443,34.527779","-138.333328,21.444445","-142.333328,9.749999","-145.444443,-0.555557","-147.666672,-9.472225","-149.000000,-17.000004","-149.444443,-23.138893","-149.000000,-27.888893","-147.666672,-31.250006","-145.444443,-33.222229","-142.333328,-33.805561","-138.333328,-33.000008","-133.444443,-30.805563","-127.666664,-27.222231","-121.000000,-22.250010","-113.444443,-15.888899","-105.000000,-8.138899","-95.666664,0.999990","-85.666664,11.527768","-82.416664,14.463185"],"p":["-121.000000,64.000000","-127.222221,49.263889","-132.555557,35.180157","-137.000000,22.393393","-140.555557,10.995518","-143.222229,0.986532","-145.000000,-7.633564","-145.888885,-14.864772","-145.888885,-20.707090","-145.000000,-25.160521","-143.222229,-28.225061","-140.555557,-29.900715","-137.000000,-30.187477","-132.555557,-29.085352","-127.222221,-26.594337","-121.000000,-22.714434","-113.888885,-17.445642","-105.888885,-10.787961","-97.000000,-2.741390","-87.250000,6.694068","-77.250000,17.518415","-67.250000,29.731653"],"v":["-400.000000,-900.000000","-346.666656,-868.333313","-293.333344,-808.872437","-240.000000,-725.539124","-186.666672,-642.205811","-133.333328,-558.872437","-80.000000,-475.539124","-26.666666,-392.205811","26.666666,-308.872467","80.000000,-225.539124","133.333328,-142.205795","186.666672,-58.872463","240.000000,24.460871","293.333344,107.794205","346.666656,191.127533","400.000000,274.460876","453.333344,357.794189","506.666656,441.127533","560.000000,524.460876","600.000000,607.794189","600.000000,691.127563","600.000000,774.460876"],"w":["-64.000000,34.000000"],"h":[{"k":"mr","t":0,"i":true,"p":"-127.222221,49.263889"}],"j":{"k":"j","t":0.032701,"i":false,"p":"-132.555557,35.180157"}},"ve":"600.000000,801.544189","di":196.756556,"du":0.355417}]},{"o":54564,"d":54563,"t":8,"p":[],"f":[],"v":[]},{"o":54564,"d":54561,"t":8,"p":[55515,55516],"f":[{"p":55515,"w":3,"t":8,"r":4,"s":55438,"e":54614,"v":"-400.000000,-900.000000","d":true,"h":false,"c":"JumpInterSurfaceCalculator"},{"p":55516,"w":3,"t":8,"r":4,"s":55438,"e":55160,"v":"-400.000000,-900.000000","d":false,"h":true,"c":"JumpInterSurfaceCalculator"}],"v":[]},{"o":54564,"d":54562,"t":8,"p":[55531],"f":[{"p":55531,"w":11,"t":8,"r":3,"s":55438,"e":54981,"v":"-400.000000,-900.000000","d":true,"h":false,"c":"JumpInterSurfaceCalculator"}],"v":[]}],"54561":[{"o":54561,"d":54557,"t":3,"p":[55546],"f":[],"v":[{"t":3,"r":0,"s":55544,"e":54653,"v":"0.000000,0.000000","d":false,"h":false,"c":"ClimbOverWallToFloorCalculator","tb":false,"st":1,"ea":true,"ia":false,"pn":"cat","io":false,"in":{"i":[{"k":"ml","t":0,"i":true},{"k":"mu","t":0,"i":true}],"d":-1},"ve":"0.000000,0.000000","di":87,"du":-0.248571}]},{"o":54561,"d":54558,"t":5,"p":[55556,55602],"f":[{"p":55556,"w":11,"t":5,"r":3,"s":55544,"e":54656,"v":"20.000000,0.000000","d":false,"h":false,"c":"FallFromWallCalculator"},{"p":55602,"w":11,"t":5,"r":3,"s":55553,"e":54656,"v":"20.000000,0.000000","d":false,"h":false,"c":"FallFromWallCalculator"}],"v":[]},{"o":54561,"d":54563,"t":5,"p":[55568,55614],"f":[{"p":55568,"w":11,"t":5,"r":3,"s":55544,"e":54668,"v":"20.000000,0.000000","d":false,"h":false,"c":"FallFromWallCalculator"},{"p":55614,"w":3,"t":5,"r":4,"s":55553,"e":54668,"v":"20.000000,0.000000","d":false,"h":false,"c":"FallFromWallCalculator"}],"v":[]},{"o":54561,"d":54564,"t":5,"p":[55580,55623],"f":[{"p":55580,"w":11,"t":5,"r":3,"s":55544,"e":54602,"v":"20.000000,0.000000","d":false,"h":false,"c":"FallFromWallCalculator"},{"p":55623,"w":11,"t":5,"r":3,"s":55553,"e":54602,"v":"20.000000,0.000000","d":false,"h":false,"c":"FallFromWallCalculator"}],"v":[]},{"o":54561,"d":54562,"t":5,"p":[55591,55634],"f":[{"p":55591,"w":11,"t":5,"r":3,"s":55544,"e":54706,"v":"20.000000,0.000000","d":false,"h":true,"c":"FallFromWallCalculator"},{"p":55634,"w":11,"t":5,"r":3,"s":55553,"e":54706,"v":"20.000000,0.000000","d":false,"h":true,"c":"FallFromWallCalculator"}],"v":[]},{"o":54561,"d":54557,"t":8,"p":[55647],"f":[],"v":[{"t":8,"r":0,"s":55544,"e":54653,"v":"400.000000,-900.000000","d":false,"h":false,"c":"JumpInterSurfaceCalculator","tb":true,"st":2,"ea":true,"ia":true,"pn":"cat","io":false,"in":{"i":[{"k":"j","t":0,"i":true},{"k":"ml","t":0,"i":true},{"k":"j","t":0.032701,"i":false},{"k":"ml","t":0.354167,"i":false}],"d":0.355417},"tr":{"f":196.756565,"d":["185.000000,-128.000000","191.666672,-143.000000","197.444443,-157.472229","202.333328,-170.555557","206.333328,-182.250000","209.444443,-192.555557","211.666672,-201.472229","213.000000,-209.000015","213.444443,-215.138901","213.000000,-219.888901","211.666672,-223.250015","209.444443,-225.222244","206.333328,-225.805573","202.333328,-225.000015","197.444443,-222.805573","191.666656,-219.222244","184.999985,-214.250015","177.444427,-207.888901","168.999985,-200.138901","159.666656,-191.000015","149.666656,-180.472244","146.416656,-177.536819"],"p":["185.000000,-128.000000","191.222229,-142.736115","196.555557,-156.819839","201.000000,-169.606613","204.555557,-181.004486","207.222229,-191.013474","209.000000,-199.633560","209.888885,-206.864777","209.888885,-212.707092","209.000000,-217.160522","207.222229,-220.225067","204.555557,-221.900711","201.000000,-222.187485","196.555557,-221.085358","191.222229,-218.594345","185.000000,-214.714432","177.888885,-209.445648","169.888885,-202.787964","161.000000,-194.741394","151.250000,-185.305939","141.250000,-174.481583","131.250000,-162.268341"],"v":["400.000000,-900.000000","346.666656,-868.333313","293.333344,-808.872437","240.000000,-725.539124","186.666672,-642.205811","133.333328,-558.872437","80.000000,-475.539124","26.666666,-392.205811","-26.666666,-308.872467","-80.000000,-225.539124","-133.333328,-142.205795","-186.666672,-58.872463","-240.000000,24.460871","-293.333344,107.794205","-346.666656,191.127533","-400.000000,274.460876","-453.333344,357.794189","-506.666656,441.127533","-560.000000,524.460876","-600.000000,607.794189","-600.000000,691.127563","-600.000000,774.460876"],"w":["128.000000,-158.000000"],"h":[{"k":"ml","t":0,"i":true,"p":"191.222229,-142.736115"}],"j":{"k":"j","t":0.032701,"i":false,"p":"196.555557,-156.819839"}},"ve":"-600.000000,801.544189","di":196.756565,"du":0.355417}]},{"o":54561,"d":54558,"t":8,"p":[55673,55674],"f":[{"p":55673,"w":11,"t":8,"r":3,"s":55553,"e":54656,"v":"400.000000,-900.000000","d":false,"h":false,"c":"JumpInterSurfaceCalculator"},{"p":55674,"w":11,"t":8,"r":3,"s":55544,"e":54656,"v":"400.000000,-900.000000","d":false,"h":false,"c":"JumpInterSurfaceCalculator"}],"v":[]},{"o":54561,"d":54563,"t":8,"p":[55716],"f":[{"p":55716,"w":11,"t":8,"r":3,"s":55544,"e":54668,"v":"400.000000,-900.000000","d":true,"h":false,"c":"JumpInterSurfaceCalculator"}],"v":[]},{"o":54561,"d":54564,"t":8,"p":[55730,55732],"f":[{"p":55730,"w":11,"t":8,"r":3,"s":55544,"e":54602,"v":"400.000000,-900.000000","d":true,"h":false,"c":"JumpInterSurfaceCalculator"},{"p":55732,"w":11,"t":8,"r":3,"s":55553,"e":54602,"v":"400.000000,-900.000000","d":false,"h":false,"c":"JumpInterSurfaceCalculator"}],"v":[]},{"o":54561,"d":54562,"t":8,"p":[55753,55755],"f":[{"p":55753,"w":11,"t":8,"r":3,"s":55544,"e":54981,"v":"400.000000,-900.000000","d":false,"h":false,"c":"JumpInterSurfaceCalculator"},{"p":55755,"w":11,"t":8,"r":3,"s":55553,"e":54981,"v":"400.000000,-900.000000","d":false,"h":false,"c":"JumpInterSurfaceCalculator"}],"v":[]}],"54562":[{"o":54562,"d":54558,"t":3,"p":[55838],"f":[],"v":[{"t":3,"r":0,"s":54624,"e":54656,"v":"0.000000,0.000000","d":false,"h":false,"c":"ClimbOverWallToFloorCalculator","tb":false,"st":1,"ea":true,"ia":false,"pn":"cat","io":false,"in":{"i":[{"k":"ml","t":0,"i":true},{"k":"mu","t":0,"i":true}],"d":-1},"ve":"0.000000,0.000000","di":87,"du":-0.248571}]},{"o":54562,"d":54564,"t":5,"p":[55849,55861],"f":[{"p":55849,"w":11,"t":5,"r":3,"s":54624,"e":54602,"v":"20.000000,0.000000","d":false,"h":false,"c":"FallFromWallCalculator"},{"p":55861,"w":3,"t":5,"r":4,"s":55845,"e":54602,"v":"20.000000,0.000000","d":false,"h":false,"c":"FallFromWallCalculator"}],"v":[]},{"o":54562,"d":54557,"t":8,"p":[55871],"f":[{"p":55871,"w":2,"t":8,"r":4,"s":54624,"e":54568,"v":"400.000000,-900.000000","d":false,"h":false,"c":"JumpInterSurfaceCalculator"}],"v":[]},{"o":54562,"d":54558,"t":8,"p":[55881],"f":[],"v":[{"t":8,"r":0,"s":54624,"e":54656,"v":"400.000000,-900.000000","d":false,"h":false,"c":"JumpInterSurfaceCalculator","tb":true,"st":2,"ea":true,"ia":true,"pn":"cat","io":false,"in":{"i":[{"k":"j","t":0,"i":true},{"k":"ml","t":0,"i":true},{"k":"j","t":0.032701,"i":false},{"k":"ml","t":0.354167,"i":false}],"d":0.355417},"tr":{"f":196.756552,"d":["57.000000,64.000000","63.666668,49.000000","69.444443,34.527779","74.333328,21.444445","78.333328,9.749999","81.444443,-0.555557","83.666664,-9.472225","85.000000,-17.000004","85.444443,-23.138893","85.000000,-27.888893","83.666664,-31.250006","81.444443,-33.222229","78.333328,-33.805561","74.333328,-33.000008","69.444443,-30.805563","63.666664,-27.222231","56.999996,-22.250010","49.444439,-15.888899","40.999992,-8.138899","31.666656,0.999990","21.666656,11.527768","18.416656,14.463185"],"p":["57.000000,64.000000","63.222221,49.263889","68.555557,35.180157","73.000000,22.393393","76.555557,10.995518","79.222221,0.986532","81.000000,-7.633564","81.888885,-14.864772","81.888885,-20.707090","81.000000,-25.160521","79.222221,-28.225061","76.555557,-29.900715","73.000000,-30.187477","68.555557,-29.085352","63.222221,-26.594337","57.000000,-22.714434","49.888889,-17.445642","41.888889,-10.787961","33.000000,-2.741390","23.250000,6.694068","13.250000,17.518415","3.250000,29.731653"],"v":["400.000000,-900.000000","346.666656,-868.333313","293.333344,-808.872437","240.000000,-725.539124","186.666672,-642.205811","133.333328,-558.872437","80.000000,-475.539124","26.666666,-392.205811","-26.666666,-308.872467","-80.000000,-225.539124","-133.333328,-142.205795","-186.666672,-58.872463","-240.000000,24.460871","-293.333344,107.794205","-346.666656,191.127533","-400.000000,274.460876","-453.333344,357.794189","-506.666656,441.127533","-560.000000,524.460876","-600.000000,607.794189","-600.000000,691.127563","-600.000000,774.460876"],"w":["0.000000,34.000000"],"h":[{"k":"ml","t":0,"i":true,"p":"63.222221,49.263889"}],"j":{"k":"j","t":0.032701,"i":false,"p":"68.555557,35.180157"}},"ve":"-600.000000,801.544189","di":196.756552,"du":0.355417}]},{"o":54562,"d":54563,"t":8,"p":[55909,55907,55908],"f":[{"p":55909,"w":11,"t":8,"r":3,"s":54624,"e":55117,"v":"400.000000,-900.000000","d":false,"h":false,"c":"JumpInterSurfaceCalculator"},{"p":55907,"w":11,"t":8,"r":3,"s":54624,"e":55117,"v":"400.000000,-900.000000","d":false,"h":true,"c":"JumpInterSurfaceCalculator"},{"p":55908,"w":11,"t":8,"r":3,"s":54624,"e":55117,"v":"400.000000,-900.000000","d":false,"h":false,"c":"JumpInterSurfaceCalculator"}],"v":[]},{"o":54562,"d":54564,"t":8,"p":[55937],"f":[{"p":55937,"w":11,"t":8,"r":3,"s":54624,"e":54602,"v":"400.000000,-900.000000","d":true,"h":false,"c":"JumpInterSurfaceCalculator"}],"v":[]},{"o":54562,"d":54561,"t":8,"p":[55952,55954],"f":[{"p":55952,"w":11,"t":8,"r":3,"s":54981,"e":54614,"v":"400.000000,-900.000000","d":true,"h":false,"c":"JumpInterSurfaceCalculator"},{"p":55954,"w":11,"t":8,"r":3,"s":55953,"e":55160,"v":"400.000000,-900.000000","d":false,"h":true,"c":"JumpInterSurfaceCalculator"}],"v":[]}]}},{"player_name":"squirrel","position_along_surface_id_to_json_object":{"55978":{"s":54557,"t":"40.500000,-128.000000","p":"64.000000,-128.000000"},"55979":{"s":54558,"t":"-64.000000,47.000000","p":"-64.000000,64.000000"},"56050":{"s":54557,"t":"151.500000,-128.000000","p":"128.000000,-128.000000"},"56052":{"s":54558,"t":"0.000000,47.000000","p":"0.000000,64.000000"},"55977":{"s":54557,"t":"64.000000,-145.000000","p":"64.000000,-128.000000"},"55994":{"s":54563,"t":"42.500000,-76.000000","p":"64.000000,-76.000000"},"56064":{"s":54563,"t":"42.500000,-117.800003","p":"64.000000,-117.800003"},"56007":{"s":54564,"t":"-85.500000,74.199997","p":"-64.000000,74.199997"},"56019":{"s":54561,"t":"149.500000,-117.800003","p":"128.000000,-117.800003"},"56087":{"s":54561,"t":"149.500000,-76.000000","p":"128.000000,-76.000000"},"56029":{"s":54562,"t":"21.500000,64.000000","p":"0.000000,64.000000"},"56098":{"s":54562,"t":"21.500000,116.000000","p":"0.000000,116.000000"},"56109":{"s":54557,"t":"128.000000,-145.000000","p":"128.000000,-128.000000"},"56317":{"s":54558,"t":"-87.500000,64.000000","p":"-64.000000,64.000000"},"56318":{"s":54564,"t":"-85.500000,116.000000","p":"-64.000000,116.000000"},"56342":{"s":54558,"t":"23.500000,64.000000","p":"0.000000,64.000000"},"56331":{"s":54562,"t":"21.500000,74.199997","p":"0.000000,74.199997"},"56370":{"s":54558,"t":"-45.637424,47.000000","p":"-45.637424,64.000000"},"56485":{"s":54563,"t":"42.500000,-128.000000","p":"64.000000,-128.000000"},"56497":{"s":54558,"t":"-37.917553,47.000000","p":"-37.917553,64.000000"},"56494":{"s":54563,"t":"42.500000,-64.000000","p":"64.000000,-64.000000"},"56585":{"s":54558,"t":"-16.372730,47.000000","p":"-16.372730,64.000000"},"56790":{"s":54564,"t":"-85.500000,64.000000","p":"-64.000000,64.000000"},"56799":{"s":54564,"t":"-85.500000,128.000000","p":"-64.000000,128.000000"},"56887":{"s":54561,"t":"149.500000,-128.000000","p":"128.000000,-128.000000"},"56896":{"s":54561,"t":"149.500000,-64.000000","p":"128.000000,-64.000000"},"57125":{"s":54562,"t":"21.500000,128.000000","p":"0.000000,128.000000"},"57224":{"s":54562,"t":"21.500000,104.919998","p":"0.000000,104.919998"}},"jump_land_positions_id_to_json_object":{"55981":{"j":55978,"l":55979,"v":"-400.000000,0.000000","d":false,"s":false,"i":false},"56053":{"j":56050,"l":56052,"v":"400.000000,0.000000","d":false,"s":false,"i":false},"55996":{"j":55978,"l":55994,"v":"-400.000000,0.000000","d":false,"s":true,"i":false},"56065":{"j":56050,"l":56064,"v":"400.000000,0.000000","d":false,"s":false,"i":false},"56008":{"j":55978,"l":56007,"v":"-400.000000,0.000000","d":false,"s":false,"i":false},"56077":{"j":56050,"l":56007,"v":"400.000000,0.000000","d":false,"s":false,"i":false},"56020":{"j":55978,"l":56019,"v":"-400.000000,0.000000","d":false,"s":false,"i":false},"56088":{"j":56050,"l":56087,"v":"400.000000,0.000000","d":false,"s":true,"i":false},"56031":{"j":55978,"l":56029,"v":"-400.000000,0.000000","d":false,"s":false,"i":false},"56099":{"j":56050,"l":56098,"v":"400.000000,0.000000","d":false,"s":true,"i":false},"56112":{"j":56109,"l":55979,"v":"-400.000000,-800.000000","d":false,"s":false,"i":false},"56113":{"j":55977,"l":56052,"v":"0.000000,-800.000000","d":false,"s":false,"i":false},"56114":{"j":56109,"l":56052,"v":"400.000000,-800.000000","d":false,"s":false,"i":true},"56180":{"j":55977,"l":56064,"v":"-400.000000,-800.000000","d":true,"s":false,"i":false},"56209":{"j":55977,"l":56007,"v":"-400.000000,-800.000000","d":true,"s":false,"i":false},"56210":{"j":56109,"l":56007,"v":"400.000000,-800.000000","d":false,"s":false,"i":true},"56241":{"j":56109,"l":56019,"v":"400.000000,-800.000000","d":true,"s":false,"i":false},"56269":{"j":56109,"l":56029,"v":"-400.000000,-800.000000","d":false,"s":false,"i":false},"56270":{"j":56109,"l":56029,"v":"400.000000,-800.000000","d":false,"s":false,"i":true},"56320":{"j":56317,"l":56318,"v":"-400.000000,0.000000","d":false,"s":true,"i":false},"56346":{"j":56342,"l":56007,"v":"400.000000,0.000000","d":false,"s":false,"i":false},"56332":{"j":56317,"l":56331,"v":"-400.000000,0.000000","d":false,"s":false,"i":false},"56357":{"j":56342,"l":56098,"v":"400.000000,0.000000","d":false,"s":true,"i":false},"56371":{"j":56370,"l":55994,"v":"400.000000,-800.000000","d":false,"s":true,"i":false},"56401":{"j":55979,"l":56007,"v":"-400.000000,-800.000000","d":true,"s":false,"i":false},"56430":{"j":55979,"l":56019,"v":"400.000000,-800.000000","d":true,"s":false,"i":true},"56431":{"j":56052,"l":56019,"v":"0.000000,-800.000000","d":true,"s":false,"i":true},"56432":{"j":56052,"l":56087,"v":"400.000000,-800.000000","d":false,"s":true,"i":true},"56457":{"j":56052,"l":56331,"v":"400.000000,-800.000000","d":true,"s":false,"i":false},"56487":{"j":56485,"l":55977,"v":"0.000000,0.000000","d":false,"s":false,"i":false},"56498":{"j":56485,"l":56497,"v":"-20.000000,0.000000","d":false,"s":false,"i":false},"56586":{"j":56494,"l":56585,"v":"-20.000000,0.000000","d":false,"s":false,"i":false},"56515":{"j":56485,"l":56007,"v":"-20.000000,0.000000","d":false,"s":false,"i":false},"56603":{"j":56494,"l":56007,"v":"-20.000000,0.000000","d":false,"s":false,"i":false},"56527":{"j":56485,"l":56019,"v":"-20.000000,0.000000","d":false,"s":false,"i":false},"56615":{"j":56494,"l":56019,"v":"-20.000000,0.000000","d":false,"s":false,"i":false},"56538":{"j":56485,"l":56029,"v":"-20.000000,0.000000","d":false,"s":false,"i":false},"56623":{"j":56494,"l":56029,"v":"-20.000000,0.000000","d":false,"s":false,"i":false},"56687":{"j":56485,"l":55977,"v":"-400.000000,-800.000000","d":false,"s":false,"i":false},"56714":{"j":56494,"l":55979,"v":"-400.000000,-800.000000","d":false,"s":false,"i":false},"56748":{"j":56485,"l":56019,"v":"-400.000000,-800.000000","d":true,"s":false,"i":false},"56763":{"j":56494,"l":56029,"v":"-400.000000,-800.000000","d":false,"s":false,"i":false},"56761":{"j":56494,"l":56029,"v":"-400.000000,-800.000000","d":false,"s":false,"i":false},"56762":{"j":56494,"l":56029,"v":"-400.000000,-800.000000","d":false,"s":false,"i":false},"56792":{"j":56790,"l":55979,"v":"0.000000,0.000000","d":false,"s":false,"i":false},"56803":{"j":56790,"l":56331,"v":"-20.000000,0.000000","d":false,"s":false,"i":false},"56815":{"j":56799,"l":56331,"v":"-20.000000,0.000000","d":false,"s":false,"i":false},"56825":{"j":56790,"l":55979,"v":"-400.000000,-800.000000","d":false,"s":false,"i":false},"56858":{"j":56790,"l":56019,"v":"-400.000000,-800.000000","d":true,"s":false,"i":false},"56859":{"j":56790,"l":56087,"v":"-400.000000,-800.000000","d":false,"s":true,"i":false},"56874":{"j":56790,"l":56331,"v":"-400.000000,-800.000000","d":true,"s":false,"i":false},"56889":{"j":56887,"l":56109,"v":"0.000000,0.000000","d":false,"s":false,"i":false},"56899":{"j":56887,"l":56052,"v":"20.000000,0.000000","d":false,"s":false,"i":false},"56945":{"j":56896,"l":56052,"v":"20.000000,0.000000","d":false,"s":false,"i":false},"56911":{"j":56887,"l":56064,"v":"20.000000,0.000000","d":false,"s":false,"i":false},"56957":{"j":56896,"l":56064,"v":"20.000000,0.000000","d":false,"s":false,"i":false},"56923":{"j":56887,"l":56007,"v":"20.000000,0.000000","d":false,"s":false,"i":false},"56966":{"j":56896,"l":56007,"v":"20.000000,0.000000","d":false,"s":false,"i":false},"56934":{"j":56887,"l":56098,"v":"20.000000,0.000000","d":false,"s":true,"i":false},"56977":{"j":56896,"l":56098,"v":"20.000000,0.000000","d":false,"s":true,"i":false},"56990":{"j":56887,"l":56109,"v":"400.000000,-800.000000","d":false,"s":false,"i":false},"57017":{"j":56896,"l":56052,"v":"400.000000,-800.000000","d":false,"s":false,"i":false},"57018":{"j":56887,"l":56052,"v":"400.000000,-800.000000","d":false,"s":false,"i":false},"57051":{"j":56887,"l":56064,"v":"400.000000,-800.000000","d":true,"s":false,"i":false},"57065":{"j":56887,"l":56007,"v":"400.000000,-800.000000","d":true,"s":false,"i":false},"57067":{"j":56896,"l":56007,"v":"400.000000,-800.000000","d":false,"s":false,"i":false},"57082":{"j":56887,"l":56331,"v":"400.000000,-800.000000","d":false,"s":false,"i":false},"57084":{"j":56896,"l":56331,"v":"400.000000,-800.000000","d":false,"s":false,"i":false},"57118":{"j":56029,"l":56052,"v":"0.000000,0.000000","d":false,"s":false,"i":false},"57129":{"j":56029,"l":56007,"v":"20.000000,0.000000","d":false,"s":false,"i":false},"57141":{"j":57125,"l":56007,"v":"20.000000,0.000000","d":false,"s":false,"i":false},"57151":{"j":56029,"l":56052,"v":"400.000000,-800.000000","d":false,"s":false,"i":false},"57182":{"j":56029,"l":55994,"v":"400.000000,-800.000000","d":false,"s":false,"i":false},"57178":{"j":56029,"l":55994,"v":"400.000000,-800.000000","d":false,"s":true,"i":false},"57180":{"j":56029,"l":55994,"v":"400.000000,-800.000000","d":false,"s":false,"i":false},"57210":{"j":56029,"l":56007,"v":"400.000000,-800.000000","d":true,"s":false,"i":false},"57225":{"j":57224,"l":56087,"v":"400.000000,-800.000000","d":false,"s":true,"i":false}},"surface_id_to_inter_surface_edges_results":{"54557":[{"o":54557,"d":54558,"t":4,"p":[55981,56053],"f":[{"p":56053,"w":11,"t":4,"r":3,"s":56050,"e":56052,"v":"400.000000,0.000000","d":false,"h":false,"c":"FallFromFloorCalculator"}],"v":[{"fl":true,"fp":55978,"t":4,"r":0,"s":55977,"e":55979,"v":"-400.000000,0.000000","d":false,"h":false,"c":"FallFromFloorCalculator","tb":false,"st":2,"ea":true,"ia":true,"pn":"squirrel","io":false,"in":{"i":[{"k":"ml","t":0,"i":true},{"k":"ml","t":0.066577,"i":false},{"k":"mr","t":0.066677,"i":true},{"k":"mr","t":0.109919,"i":false}],"d":0.331252},"tr":{"f":192.972989,"d":["64.000000,-145.000000","57.333332,-144.750000","50.541664,-144.500000","43.624996,-144.250000","40.500000,-128.000000","33.833332,-128.000000","28.055553,-126.611115","23.166664,-123.833336","18.277775,-119.666672","13.388885,-114.111115","8.499996,-107.166672","3.611107,-98.833336","-1.277781,-89.111115","-6.166670,-78.000000","-11.055559,-65.500000","-15.944448,-51.611111","-20.833338,-36.333332","-25.722227,-19.666666","-30.611116,-1.611111","-34.886486,15.218914"],"p":["64.000000,-145.000000","57.333332,-144.750000","50.541664,-144.500000","43.624996,-144.250000","40.500000,-128.000000","33.913395,-127.305557","27.330765,-125.222221","20.748133,-121.750000","14.165502,-116.888885","7.582871,-110.638885","1.000240,-103.000000","-5.582391,-93.972221","-12.165022,-83.555557","-18.747652,-71.750000","-25.330284,-58.555557","-31.912914,-43.972221","-38.495544,-28.000000","-45.078175,-10.638889","-51.660809,8.111111","-58.243439,28.250000"],"v":["-400.000000,15.000000","-407.500000,15.000000","-415.000000,15.000000","-422.500000,15.000000","-400.000000,0.000000","-394.957855,83.333336","-394.957855,166.666672","-394.957855,250.000000","-394.957855,333.333344","-394.957855,416.666656","-394.957855,500.000000","-394.957855,583.333313","-394.957855,666.666687","-394.957855,750.000000","-394.957855,833.333313","-394.957855,916.666687","-394.957855,1000.000000","-394.957855,1083.333374","-394.957855,1166.666626","-394.957855,1250.000000"],"w":["-64.000000,47.000000"],"h":[{"k":"mr","t":0,"i":true,"p":"33.913395,-127.305557"},{"k":"mr","t":0.043242,"i":false,"p":"20.748133,-121.750000"}]},"ve":"-394.957855,1322.875610","di":192.972989,"du":0.331252}]},{"o":54557,"d":54563,"t":4,"p":[55996,56065],"f":[{"p":55996,"w":11,"t":4,"r":3,"s":55978,"e":55994,"v":"-400.000000,0.000000","d":false,"h":true,"c":"FallFromFloorCalculator"},{"p":56065,"w":11,"t":4,"r":3,"s":56050,"e":56064,"v":"400.000000,0.000000","d":false,"h":false,"c":"FallFromFloorCalculator"}],"v":[]},{"o":54557,"d":54564,"t":4,"p":[56008,56077],"f":[{"p":56008,"w":11,"t":4,"r":3,"s":55978,"e":56007,"v":"-400.000000,0.000000","d":false,"h":false,"c":"FallFromFloorCalculator"},{"p":56077,"w":11,"t":4,"r":3,"s":56050,"e":56007,"v":"400.000000,0.000000","d":false,"h":false,"c":"FallFromFloorCalculator"}],"v":[]},{"o":54557,"d":54561,"t":4,"p":[56020,56088],"f":[{"p":56020,"w":11,"t":4,"r":3,"s":55978,"e":56019,"v":"-400.000000,0.000000","d":false,"h":false,"c":"FallFromFloorCalculator"},{"p":56088,"w":11,"t":4,"r":3,"s":56050,"e":56087,"v":"400.000000,0.000000","d":false,"h":true,"c":"FallFromFloorCalculator"}],"v":[]},{"o":54557,"d":54562,"t":4,"p":[56031,56099],"f":[{"p":56031,"w":11,"t":4,"r":3,"s":55978,"e":56029,"v":"-400.000000,0.000000","d":false,"h":false,"c":"FallFromFloorCalculator"},{"p":56099,"w":11,"t":4,"r":3,"s":56050,"e":56098,"v":"400.000000,0.000000","d":false,"h":true,"c":"FallFromFloorCalculator"}],"v":[]},{"o":54557,"d":54558,"t":8,"p":[56112,56113,56114],"f":[{"p":56114,"w":11,"t":8,"r":8,"s":56109,"e":56052,"v":"400.000000,-800.000000","d":false,"h":false,"c":"JumpInterSurfaceCalculator"}],"v":[{"t":8,"r":0,"s":56109,"e":55979,"v":"-400.000000,-800.000000","d":false,"h":false,"c":"JumpInterSurfaceCalculator","tb":true,"st":2,"ea":true,"ia":true,"pn":"squirrel","io":false,"in":{"i":[{"k":"j","t":0,"i":true},{"k":"mr","t":0,"i":true},{"k":"j","t":0.008333,"i":false},{"k":"mr","t":0.041667,"i":false}],"d":0.48},"tr":{"f":370.379658,"d":["128.000000,-145.000000","121.333336,-158.333328","115.555557,-170.277771","110.666672,-180.833328","105.777786,-190.000000","100.888901,-197.777786","96.000015,-204.166672","91.111130,-209.166672","86.222244,-212.777786","81.333359,-215.000015","76.444473,-215.833344","71.555588,-215.277786","66.666702,-213.333344","61.777813,-210.000015","56.888924,-205.277786","52.000034,-199.166672","47.111145,-191.666672","42.222256,-182.777786","37.333366,-172.500015","32.444477,-160.833344","27.555588,-147.777786","22.666698,-133.333344","17.777809,-117.500015","12.888920,-100.277794","8.000031,-81.666687","3.111142,-61.666687","-1.777747,-40.277794","-6.666636,-17.500013","-10.577747,1.555545"],"p":["128.000000,-145.000000","121.333336,-157.638885","114.666664,-168.888885","108.000000,-178.750000","101.333336,-187.222229","94.666664,-194.305557","88.000000,-200.000000","81.333336,-204.305557","74.666664,-207.222229","68.000000,-208.750000","61.333332,-208.888885","54.666668,-207.638885","48.000000,-205.000000","41.333332,-200.972229","34.666668,-195.555557","28.000000,-188.750000","21.333334,-180.555557","14.666667,-170.972229","8.000000,-160.000000","1.333333,-147.638885","-5.333333,-133.888885","-12.000000,-118.750000","-18.666666,-102.222221","-25.333334,-84.305557","-32.000000,-65.000000","-38.666668,-44.305557","-45.333332,-22.222221","-52.000000,1.250000","-58.666668,26.111111"],"v":["-400.000000,-800.000000","-400.000000,-716.666687","-400.000000,-633.333313","-400.000000,-550.000000","-400.000000,-466.666656","-400.000000,-383.333344","-400.000000,-300.000000","-400.000000,-216.666672","-400.000000,-133.333328","-400.000000,-50.000000","-400.000000,33.333332","-400.000000,116.666664","-400.000000,200.000000","-400.000000,283.333344","-400.000000,366.666656","-400.000000,450.000000","-400.000000,533.333313","-400.000000,616.666687","-400.000000,700.000000","-400.000000,783.333313","-400.000000,866.666687","-400.000000,950.000000","-400.000000,1033.333374","-400.000000,1116.666626","-400.000000,1200.000000","-400.000000,1283.333374","-400.000000,1366.666626","-400.000000,1450.000000","-400.000000,1533.333374"],"w":["-64.000000,47.000000"],"h":[{"k":"mr","t":0,"i":true,"p":"121.333336,-157.638885"},{"k":"mr","t":0.041667,"i":false,"p":"108.000000,-178.750000"}],"j":{"k":"j","t":0.008333,"i":false,"p":"121.333336,-157.638885"}},"ve":"-400.000000,1600.000000","di":370.379658,"du":0.48},{"t":8,"r":1,"s":55977,"e":56052,"v":"0.000000,-800.000000","d":false,"h":false,"c":"JumpInterSurfaceCalculator","tb":true,"st":2,"ea":true,"ia":true,"pn":"squirrel","io":false,"in":{"i":[{"k":"j","t":0,"i":true},{"k":"j","t":0.008333,"i":false},{"k":"ml","t":0.184873,"i":true},{"k":"ml","t":0.313523,"i":false},{"k":"mr","t":0.313623,"i":true},{"k":"mr","t":0.424073,"i":false}],"d":0.48},"tr":{"f":304.518458,"d":["64.000000,-145.000000","64.000000,-158.333328","64.000000,-170.277771","64.000000,-180.833328","64.000000,-190.000000","64.000000,-197.777786","64.000000,-204.166672","64.000000,-209.166672","64.000000,-212.777786","64.000000,-215.000015","64.000000,-215.833344","64.000000,-215.277786","64.000000,-213.333344","63.111111,-210.000015","61.333332,-205.277786","58.666664,-199.166672","55.111107,-191.666672","50.666664,-182.777786","45.333332,-172.500015","39.111111,-160.833344","33.777779,-147.777786","29.333334,-133.333344","25.777779,-117.500015","23.111113,-100.277794","21.333334,-81.666687","20.444445,-61.666687","20.444445,-40.277794","20.444445,-17.500013","20.444445,1.555545"],"p":["64.000000,-145.000000","64.000000,-157.638885","64.000000,-168.888885","64.000000,-178.750000","64.000000,-187.222229","64.000000,-194.305557","64.000000,-200.000000","64.000000,-204.305557","64.000000,-207.222229","64.000000,-208.750000","64.000000,-208.888885","64.000000,-207.638885","63.633873,-205.000000","62.382652,-200.972229","60.242542,-195.555557","57.213539,-188.750000","53.295650,-180.555557","48.488873,-170.972229","42.793205,-160.000000","37.500000,-150.000000","31.277779,-136.503647","25.944445,-121.618401","21.500000,-105.344269","17.944445,-87.681252","14.939048,-68.629341","11.940820,-48.188541","8.942591,-26.358854","5.944363,-3.140279","2.946134,21.467186"],"v":["0.000000,-800.000000","0.000000,-716.666687","0.000000,-633.333313","0.000000,-550.000000","0.000000,-466.666656","0.000000,-383.333344","0.000000,-300.000000","0.000000,-216.666672","0.000000,-133.333328","0.000000,-50.000000","0.000000,33.333332","0.000000,116.666664","-48.406673,200.000000","-101.740005,283.333344","-155.073334,366.666656","-208.406677,450.000000","-261.739990,533.333313","-315.073334,616.666687","-368.406677,700.000000","-400.000000,768.114563","-346.666656,851.447937","-293.333344,934.781250","-240.000000,1018.114563","-186.666672,1101.447876","-179.893707,1184.781250","-179.893707,1268.114624","-179.893707,1351.447876","-179.893707,1434.781250","-179.893707,1518.114624"],"w":["37.500000,-150.000000","0.000000,47.000000"],"h":[{"k":"ml","t":0.184873,"i":true,"p":"63.633873,-205.000000"},{"k":"ml","t":0.313523,"i":false,"p":"36.297321,-147.638885"},{"k":"mr","t":0.313623,"i":true,"p":"36.297321,-147.638885"},{"k":"mr","t":0.424073,"i":false,"p":"8.395040,-22.222221"}],"j":{"k":"j","t":0.008333,"i":false,"p":"64.000000,-157.638885"}},"ve":"-179.893707,1600.000000","di":304.518458,"du":0.48}]},{"o":54557,"d":54563,"t":8,"p":[56180],"f":[],"v":[{"t":8,"r":0,"s":55977,"e":56064,"v":"-400.000000,-800.000000","d":true,"h":false,"c":"JumpInterSurfaceCalculator","tb":true,"st":2,"ea":true,"ia":true,"pn":"squirrel","io":false,"in":{"i":[{"k":"j","t":0,"i":true},{"k":"j","t":0.008333,"i":false},{"k":"mr","t":0.077374,"i":true},{"k":"mr","t":0.36904,"i":false},{"k":"gw","t":0.410707,"i":true},{"k":"fr","t":0.410707,"i":true}],"d":0.350997},"tr":{"f":183.224295,"d":["64.000000,-145.000000","57.333332,-158.333328","50.666664,-170.277771","43.999996,-180.833328","37.333328,-190.000000","30.666660,-197.777786","24.888882,-204.166672","19.999992,-209.166672","15.999992,-212.777786","12.888882,-215.000015","10.666659,-215.833344","9.333326,-215.277786","8.888882,-213.333344","9.333326,-210.000015","10.666660,-205.277786","12.888883,-199.166672","15.999994,-191.666672","19.999994,-182.777786","24.888884,-172.500015","30.666662,-160.833344","37.333328,-147.777786","37.732281,-148.219162"],"p":["64.000000,-145.000000","57.333332,-157.638885","50.666668,-168.888885","44.000000,-178.750000","37.333332,-187.222229","30.723495,-194.305557","24.819120,-200.000000","19.803637,-204.305557","15.677039,-207.222229","12.439331,-208.750000","10.090512,-208.888885","8.630582,-207.638885","8.059541,-205.000000","8.377388,-200.972229","9.584125,-195.555557","11.679750,-188.750000","14.664265,-180.555557","18.537668,-170.972229","23.299959,-160.000000","28.951141,-147.638885","35.434383,-133.888885","42.101051,-118.750000"],"v":["-400.000000,-800.000000","-400.000000,-716.666687","-400.000000,-633.333313","-400.000000,-550.000000","-400.000000,-466.666656","-380.929138,-383.333344","-327.595795,-300.000000","-274.262482,-216.666672","-220.929138,-133.333328","-167.595810,-50.000000","-114.262474,33.333332","-60.929138,116.666664","-7.595807,200.000000","45.737526,283.333344","99.070862,366.666656","152.404190,450.000000","205.737534,533.333313","259.070862,616.666687","312.404205,700.000000","365.737518,783.333313","400.000000,866.666687","400.000000,950.000000"],"w":["42.500000,-117.800003"],"h":[{"k":"mr","t":0.077374,"i":true,"p":"30.723495,-194.305557"}],"j":{"k":"j","t":0.008333,"i":false,"p":"57.333332,-157.638885"}},"ve":"400.000000,954.986877","di":183.224295,"du":0.350997}]},{"o":54557,"d":54564,"t":8,"p":[56209,56210],"f":[{"p":56210,"w":11,"t":8,"r":8,"s":56109,"e":56007,"v":"400.000000,-800.000000","d":false,"h":false,"c":"JumpInterSurfaceCalculator"}],"v":[{"t":8,"r":0,"s":55977,"e":56007,"v":"-400.000000,-800.000000","d":true,"h":false,"c":"JumpInterSurfaceCalculator","tb":true,"st":2,"ea":true,"ia":true,"pn":"squirrel","io":false,"in":{"i":[{"k":"j","t":0,"i":true},{"k":"j","t":0.008333,"i":false},{"k":"mr","t":0.321342,"i":true},{"k":"mr","t":0.538238,"i":false},{"k":"gw","t":0.579904,"i":true},{"k":"fr","t":0.579904,"i":true}],"d":0.496571},"tr":{"f":390.127768,"d":["64.000000,-145.000000","57.333332,-158.333328","50.666664,-170.277771","43.999996,-180.833328","37.333328,-190.000000","30.666660,-197.777786","23.999992,-204.166672","17.333324,-209.166672","10.666657,-212.777786","3.999990,-215.000015","-2.666677,-215.833344","-9.333344,-215.277786","-16.000011,-213.333344","-22.666679,-210.000015","-29.333347,-205.277786","-36.000015,-199.166672","-42.666683,-191.666672","-49.333351,-182.777786","-56.000019,-172.500015","-62.666687,-160.833344","-69.333351,-147.777786","-75.111130,-133.333344","-80.000015,-117.500015","-84.000015,-100.277794","-87.111130,-81.666687","-89.333351,-61.666687","-90.666687,-40.277794","-91.111130,-17.500013","-90.666687,6.666656","-89.790558,26.678570"],"p":["64.000000,-145.000000","57.333332,-157.638885","50.666668,-168.888885","44.000000,-178.750000","37.333332,-187.222229","30.666666,-194.305557","24.000000,-200.000000","17.333334,-204.305557","10.666667,-207.222229","4.000000,-208.750000","-2.666667,-208.888885","-9.333333,-207.638885","-16.000000,-205.000000","-22.666666,-200.972229","-29.333334,-195.555557","-36.000000,-188.750000","-42.666668,-180.555557","-49.333332,-170.972229","-56.000000,-160.000000","-62.666668,-147.638885","-69.103256,-133.888885","-74.685936,-118.750000","-79.379723,-102.222221","-83.184616,-84.305557","-86.100632,-65.000000","-88.127747,-44.305557","-89.265984,-22.222221","-89.515327,1.250000","-88.875778,26.111111","-87.347343,52.361111"],"v":["-400.000000,-800.000000","-400.000000,-716.666687","-400.000000,-633.333313","-400.000000,-550.000000","-400.000000,-466.666656","-400.000000,-383.333344","-400.000000,-300.000000","-400.000000,-216.666672","-400.000000,-133.333328","-400.000000,-50.000000","-400.000000,33.333332","-400.000000,116.666664","-400.000000,200.000000","-400.000000,283.333344","-400.000000,366.666656","-400.000000,450.000000","-400.000000,533.333313","-400.000000,616.666687","-400.000000,700.000000","-400.000000,783.333313","-361.627258,866.666687","-308.293915,950.000000","-254.960571,1033.333374","-201.627243,1116.666626","-148.293915,1200.000000","-94.960579,1283.333374","-41.627247,1366.666626","11.706088,1450.000000","65.039421,1533.333374","118.372757,1616.666626"],"w":["-85.500000,74.199997"],"h":[{"k":"mr","t":0.321342,"i":true,"p":"-69.103256,-133.888885"}],"j":{"k":"j","t":0.008333,"i":false,"p":"57.333332,-157.638885"}},"ve":"160.733109,1682.854736","di":390.127768,"du":0.496571}]},{"o":54557,"d":54561,"t":8,"p":[56241],"f":[],"v":[{"t":8,"r":0,"s":56109,"e":56019,"v":"400.000000,-800.000000","d":true,"h":false,"c":"JumpInterSurfaceCalculator","tb":true,"st":2,"ea":true,"ia":true,"pn":"squirrel","io":false,"in":{"i":[{"k":"j","t":0,"i":true},{"k":"j","t":0.008333,"i":false},{"k":"ml","t":0.077374,"i":true},{"k":"ml","t":0.36904,"i":false},{"k":"gw","t":0.410707,"i":true},{"k":"fl","t":0.410707,"i":true}],"d":0.350997},"tr":{"f":183.224293,"d":["128.000000,-145.000000","134.666672,-158.333328","141.333344,-170.277771","148.000015,-180.833328","154.666687,-190.000000","161.333359,-197.777786","167.111130,-204.166672","172.000015,-209.166672","176.000015,-212.777786","179.111130,-215.000015","181.333359,-215.833344","182.666687,-215.277786","183.111130,-213.333344","182.666687,-210.000015","181.333359,-205.277786","179.111130,-199.166672","176.000015,-191.666672","172.000015,-182.777786","167.111130,-172.500015","161.333344,-160.833344","154.666672,-147.777786","154.267715,-148.219162"],"p":["128.000000,-145.000000","134.666672,-157.638885","141.333328,-168.888885","148.000000,-178.750000","154.666672,-187.222229","161.276505,-194.305557","167.180878,-200.000000","172.196365,-204.305557","176.322968,-207.222229","179.560669,-208.750000","181.909485,-208.888885","183.369415,-207.638885","183.940460,-205.000000","183.622620,-200.972229","182.415878,-195.555557","180.320251,-188.750000","177.335739,-180.555557","173.462341,-170.972229","168.700043,-160.000000","163.048859,-147.638885","156.565628,-133.888885","149.898956,-118.750000"],"v":["400.000000,-800.000000","400.000000,-716.666687","400.000000,-633.333313","400.000000,-550.000000","400.000000,-466.666656","380.929138,-383.333344","327.595795,-300.000000","274.262482,-216.666672","220.929138,-133.333328","167.595810,-50.000000","114.262474,33.333332","60.929138,116.666664","7.595807,200.000000","-45.737526,283.333344","-99.070862,366.666656","-152.404190,450.000000","-205.737534,533.333313","-259.070862,616.666687","-312.404205,700.000000","-365.737518,783.333313","-400.000000,866.666687","-400.000000,950.000000"],"w":["149.500000,-117.800003"],"h":[{"k":"ml","t":0.077374,"i":true,"p":"161.276505,-194.305557"}],"j":{"k":"j","t":0.008333,"i":false,"p":"134.666672,-157.638885"}},"ve":"-400.000000,954.986877","di":183.224293,"du":0.350997}]},{"o":54557,"d":54562,"t":8,"p":[56269,56270],"f":[{"p":56270,"w":11,"t":8,"r":8,"s":56109,"e":56029,"v":"400.000000,-800.000000","d":false,"h":false,"c":"JumpInterSurfaceCalculator"}],"v":[{"t":8,"r":2,"s":56109,"e":56029,"v":"-400.000000,-800.000000","d":false,"h":false,"c":"JumpInterSurfaceCalculator","tb":true,"st":2,"ea":true,"ia":true,"pn":"squirrel","io":false,"in":{"i":[{"k":"j","t":0,"i":true},{"k":"mr","t":0,"i":true},{"k":"mr","t":0.121351,"i":false},{"k":"gw","t":0.163018,"i":true},{"k":"fl","t":0.163018,"i":true},{"k":"j","t":0.217505,"i":false}],"d":0.664375},"tr":{"f":512.103166,"d":["128.000000,-145.000000","121.333336,-158.333328","115.555557,-171.138885","110.666672,-183.416656","106.666672,-195.166656","103.555557,-206.388885","101.333336,-217.083328","100.000000,-227.250000","99.555557,-236.888885","99.111115,-246.000000","98.666672,-254.583328","98.222229,-262.638885","97.777786,-270.166656","97.333344,-277.166656","96.888901,-283.638885","96.444458,-288.722229","96.000015,-292.416656","95.555573,-294.722198","95.111130,-295.638855","94.666687,-295.166626","94.222244,-293.305511","93.777802,-290.055511","93.333359,-285.416626","92.888916,-279.388855","92.444473,-271.972198","92.000031,-263.166626","91.555588,-252.972183","91.111145,-241.388855","90.666702,-228.416626","90.222260,-214.055511","89.777817,-198.305511","89.333374,-181.166626","88.888931,-162.638840","88.444489,-142.722168","88.000046,-121.416611","87.555603,-98.722160","87.111160,-74.638824","86.666718,-49.166595","86.222275,-22.305477","85.838943,1.869183"],"p":["128.000000,-145.000000","121.777779,-158.069443","116.444443,-170.611115","112.000000,-182.625000","108.444443,-194.111115","105.756477,-205.069443","103.339661,-215.500000","100.922836,-225.402771","98.506012,-234.777771","96.089188,-243.625000","93.672363,-251.944443","91.255547,-259.736115","88.838722,-267.000000","86.421898,-273.649048","84.005074,-279.039581","81.588257,-283.041229","79.171432,-285.653992","76.754608,-286.877869","74.337784,-286.712830","71.920967,-285.158936","69.504143,-282.216125","67.087318,-277.884460","64.670494,-272.163879","62.253674,-265.054413","59.836849,-256.556061","57.420029,-246.668823","55.003204,-235.392700","52.586384,-222.727676","50.169559,-208.673782","47.752739,-193.230988","45.335915,-176.399292","42.919094,-158.178726","40.502270,-138.569260","38.085449,-117.570908","35.668625,-95.183670","33.251804,-71.407539","30.834980,-46.242523","28.418158,-19.688618","26.001335,8.254178","23.584513,37.585861","21.500004,64.000000"],"v":["-400.000000,-800.000000","-346.666656,-768.333313","-293.333344,-736.666687","-240.000000,-705.000000","-186.666672,-673.333313","-145.009354,-641.666687","-145.009354,-610.000000","-145.009354,-578.333313","-145.009354,-546.666687","-145.009354,-515.000000","-145.009354,-483.333344","-145.009354,-451.666656","-145.009354,-420.000000","-145.009354,-365.098938","-145.009354,-281.765594","-145.009354,-198.432281","-145.009354,-115.098938","-145.009354,-31.765608","-145.009354,51.567726","-145.009354,134.901062","-145.009354,218.234390","-145.009354,301.567719","-145.009354,384.901062","-145.009354,468.234406","-145.009354,551.567749","-145.009354,634.901062","-145.009354,718.234375","-145.009354,801.567749","-145.009354,884.901062","-145.009354,968.234375","-145.009354,1051.567749","-145.009354,1134.901001","-145.009354,1218.234375","-145.009354,1301.567749","-145.009354,1384.901001","-145.009354,1468.234375","-145.009354,1551.567749","-145.009354,1634.901001","-145.009354,1718.234375","-145.009354,1801.567749","-145.009354,1873.442749"],"w":["21.500000,64.000000"],"h":[{"k":"mr","t":0,"i":true,"p":"121.777779,-158.069443"},{"k":"mr","t":0.121351,"i":false,"p":"98.506012,-234.777771"}],"j":{"k":"j","t":0.217505,"i":false,"p":"84.005074,-279.039581"}},"ve":"-145.009354,1873.442749","di":512.103166,"du":0.664375}]}],"54558":[{"o":54558,"d":54564,"t":4,"p":[56320,56346],"f":[{"p":56320,"w":11,"t":4,"r":3,"s":56317,"e":56318,"v":"-400.000000,0.000000","d":false,"h":true,"c":"FallFromFloorCalculator"},{"p":56346,"w":11,"t":4,"r":3,"s":56342,"e":56007,"v":"400.000000,0.000000","d":false,"h":false,"c":"FallFromFloorCalculator"}],"v":[]},{"o":54558,"d":54562,"t":4,"p":[56332,56357],"f":[{"p":56332,"w":11,"t":4,"r":3,"s":56317,"e":56331,"v":"-400.000000,0.000000","d":false,"h":false,"c":"FallFromFloorCalculator"},{"p":56357,"w":11,"t":4,"r":3,"s":56342,"e":56098,"v":"400.000000,0.000000","d":false,"h":true,"c":"FallFromFloorCalculator"}],"v":[]},{"o":54558,"d":54563,"t":8,"p":[56371],"f":[],"v":[{"t":8,"r":0,"s":56370,"e":55994,"v":"400.000000,-800.000000","d":false,"h":true,"c":"JumpInterSurfaceCalculator","tb":true,"st":2,"ea":true,"ia":true,"pn":"squirrel","io":false,"in":{"i":[{"k":"j","t":0,"i":true},{"k":"ml","t":0,"i":true},{"k":"ml","t":0.056438,"i":false},{"k":"gw","t":0.098104,"i":true},{"k":"fr","t":0.098104,"i":true},{"k":"j","t":0.151689,"i":false}],"d":0.248881},"tr":{"f":156.315376,"d":["-45.637424,47.000000","-38.970757,33.666664","-33.192978,20.861107","-28.304089,8.583329","-24.304089,-3.166671","-20.304089,-14.388892","-16.304089,-25.083336","-12.304089,-35.250000","-8.304089,-44.888885","-4.304089,-53.999992","-0.304089,-62.583324","3.695911,-69.777763","7.695911,-75.583313","11.695911,-79.999977","15.427252,-82.917671"],"p":["-45.637424,47.000000","-39.409454,33.930557","-33.530575,21.388889","-27.651697,9.375000","-21.772818,-2.111111","-15.893939,-13.069445","-10.015060,-23.500000","-4.136181,-33.402779","1.742697,-42.777779","7.621576,-51.556576","13.500455,-59.102180","19.379333,-65.258896","25.258213,-70.026718","31.137091,-73.405655","37.015968,-75.395706","42.499996,-76.000000"],"v":["400.000000,-800.000000","352.732727,-768.333313","352.732727,-736.666687","352.732727,-705.000000","352.732727,-673.333313","352.732727,-641.666687","352.732727,-610.000000","352.732727,-578.333313","352.732727,-546.666687","352.732727,-494.402924","352.732727,-411.069611","352.732727,-327.736267","352.732727,-244.402924","352.732727,-161.069595","352.732727,-77.736259","352.732727,0.000000"],"w":["42.500000,-76.000000"],"h":[{"k":"ml",